//Numpy array shape [2048, 10]
//Min -0.093750000000
//Max 0.093750000000
//Number of zeros 7001

#ifndef W18_H_
#define W18_H_

#ifndef __SYNTHESIS__
weight18_t w18[20480];
#else
weight18_t w18[20480] = {0.03125, 0.00000, 0.09375, 0.00000, 0.00000, -0.03125, 0.00000, 0.03125, 0.00000, 0.00000, 0.00000, -0.03125, 0.06250, 0.00000, -0.03125, 0.00000, 0.03125, 0.00000, 0.06250, -0.03125, 0.00000, 0.00000, -0.06250, -0.03125, 0.00000, 0.00000, -0.03125, 0.00000, 0.00000, -0.03125, 0.03125, 0.03125, 0.03125, 0.00000, -0.03125, 0.00000, 0.06250, -0.06250, -0.03125, 0.03125, -0.03125, 0.00000, 0.00000, 0.00000, 0.03125, -0.06250, 0.00000, -0.03125, -0.03125, 0.06250, 0.00000, 0.00000, 0.00000, 0.03125, 0.00000, 0.03125, 0.06250, 0.00000, 0.06250, 0.06250, 0.03125, 0.00000, 0.06250, 0.06250, 0.00000, 0.00000, 0.03125, -0.03125, 0.03125, 0.03125, 0.00000, 0.03125, 0.00000, 0.00000, -0.06250, 0.03125, 0.03125, 0.00000, -0.03125, -0.03125, -0.03125, -0.06250, 0.00000, 0.03125, -0.03125, 0.06250, 0.00000, 0.00000, -0.03125, -0.03125, -0.06250, 0.00000, 0.00000, -0.03125, -0.03125, 0.03125, 0.03125, 0.03125, 0.03125, -0.03125, 0.00000, 0.00000, 0.00000, 0.03125, -0.03125, 0.00000, 0.00000, 0.06250, 0.00000, 0.00000, -0.03125, -0.03125, 0.00000, 0.03125, 0.06250, 0.03125, -0.03125, 0.00000, 0.00000, 0.03125, -0.03125, 0.03125, 0.00000, -0.06250, 0.00000, -0.06250, -0.03125, -0.03125, 0.03125, 0.00000, -0.03125, -0.06250, 0.00000, 0.03125, -0.06250, -0.03125, -0.03125, 0.03125, 0.06250, 0.00000, -0.03125, 0.06250, 0.00000, -0.06250, 0.00000, 0.00000, 0.00000, 0.00000, -0.03125, 0.03125, 0.03125, -0.03125, 0.03125, 0.00000, -0.06250, -0.03125, 0.00000, -0.06250, -0.03125, 0.06250, -0.03125, -0.03125, 0.03125, 0.00000, 0.00000, -0.03125, 0.03125, -0.06250, 0.00000, -0.03125, -0.06250, 0.00000, 0.00000, 0.06250, 0.03125, -0.03125, -0.03125, 0.00000, 0.00000, -0.06250, -0.06250, 0.00000, 0.00000, 0.06250, 0.06250, 0.00000, 0.00000, 0.00000, 0.03125, -0.06250, 0.03125, 0.03125, -0.03125, -0.06250, 0.00000, 0.00000, 0.03125, -0.03125, 0.03125, -0.03125, 0.00000, 0.06250, 0.06250, -0.03125, 0.03125, -0.03125, -0.03125, 0.03125, -0.03125, -0.06250, 0.00000, 0.00000, 0.00000, 0.00000, 0.00000, 0.00000, -0.03125, 0.00000, 0.06250, 0.00000, 0.03125, 0.03125, 0.03125, -0.03125, 0.03125, 0.00000, 0.00000, 0.00000, 0.00000, 0.00000, -0.06250, 0.00000, 0.03125, 0.00000, -0.03125, 0.03125, 0.00000, 0.06250, 0.00000, 0.03125, 0.00000, 0.00000, 0.00000, 0.00000, -0.03125, -0.03125, 0.03125, 0.03125, -0.06250, 0.00000, 0.00000, 0.00000, 0.00000, 0.00000, 0.06250, -0.03125, -0.03125, 0.03125, -0.03125, 0.00000, 0.03125, -0.03125, -0.06250, 0.03125, 0.00000, 0.00000, 0.03125, 0.00000, 0.00000, 0.00000, -0.03125, -0.03125, 0.00000, 0.00000, -0.03125, 0.00000, -0.06250, 0.00000, 0.00000, -0.03125, -0.03125, 0.03125, -0.03125, -0.03125, -0.03125, -0.03125, 0.03125, 0.03125, 0.00000, 0.00000, 0.03125, 0.00000, -0.03125, 0.03125, 0.00000, 0.00000, -0.06250, 0.00000, 0.03125, 0.03125, -0.03125, -0.03125, -0.06250, -0.09375, -0.03125, 0.00000, 0.00000, -0.06250, 0.03125, 0.03125, -0.03125, 0.00000, 0.03125, 0.03125, -0.06250, 0.03125, 0.06250, 0.03125, 0.03125, 0.00000, -0.03125, -0.03125, 0.03125, -0.06250, -0.03125, 0.06250, 0.00000, 0.06250, 0.00000, 0.00000, 0.00000, -0.03125, 0.06250, 0.03125, 0.00000, 0.00000, 0.03125, -0.03125, 0.00000, -0.06250, -0.06250, 0.03125, 0.00000, -0.03125, 0.00000, 0.00000, -0.03125, -0.06250, 0.03125, 0.03125, 0.00000, 0.03125, 0.06250, -0.06250, 0.00000, 0.00000, 0.03125, 0.00000, -0.09375, -0.06250, -0.03125, 0.00000, 0.06250, 0.03125, -0.03125, -0.06250, -0.03125, 0.03125, 0.00000, -0.03125, 0.00000, 0.06250, 0.00000, 0.00000, 0.03125, 0.03125, 0.03125, 0.00000, -0.03125, 0.00000, -0.03125, 0.00000, -0.03125, 0.00000, 0.00000, 0.00000, 0.03125, -0.03125, 0.00000, -0.03125, -0.06250, -0.03125, 0.00000, -0.03125, 0.00000, 0.00000, 0.03125, 0.00000, 0.00000, 0.06250, 0.03125, -0.03125, 0.00000, 0.00000, 0.03125, -0.03125, 0.06250, -0.03125, -0.03125, -0.03125, 0.03125, 0.00000, -0.03125, 0.00000, 0.00000, 0.09375, -0.03125, 0.03125, 0.06250, 0.03125, -0.06250, 0.00000, 0.00000, 0.03125, 0.00000, -0.03125, -0.09375, -0.03125, 0.00000, -0.03125, -0.03125, 0.06250, 0.03125, 0.06250, 0.03125, -0.03125, -0.03125, -0.03125, 0.00000, 0.06250, 0.00000, 0.03125, -0.03125, -0.06250, 0.00000, 0.00000, 0.03125, 0.06250, 0.03125, -0.03125, 0.00000, 0.03125, 0.00000, 0.06250, 0.03125, 0.00000, -0.03125, -0.06250, 0.00000, 0.03125, 0.00000, 0.03125, -0.06250, 0.00000, 0.00000, 0.06250, 0.03125, 0.03125, -0.06250, 0.03125, 0.00000, -0.03125, 0.00000, 0.00000, 0.00000, 0.03125, -0.06250, -0.03125, 0.03125, -0.06250, 0.00000, 0.00000, 0.03125, 0.03125, 0.00000, 0.00000, 0.06250, 0.00000, -0.03125, 0.03125, 0.00000, 0.00000, -0.06250, 0.03125, 0.00000, 0.06250, 0.00000, 0.03125, 0.03125, -0.03125, 0.03125, 0.03125, -0.03125, 0.00000, 0.06250, -0.03125, -0.06250, 0.00000, 0.03125, 0.03125, -0.06250, -0.03125, -0.03125, 0.03125, 0.03125, 0.00000, -0.03125, 0.00000, -0.06250, 0.06250, -0.03125, 0.03125, -0.03125, 0.00000, 0.00000, 0.00000, -0.03125, -0.03125, -0.06250, 0.06250, 0.00000, -0.03125, -0.03125, -0.03125, 0.03125, 0.00000, -0.03125, 0.00000, 0.03125, 0.00000, 0.00000, -0.03125, 0.00000, -0.03125, -0.06250, 0.00000, 0.00000, -0.03125, 0.00000, 0.00000, -0.03125, -0.03125, 0.00000, -0.03125, 0.00000, 0.00000, 0.03125, 0.00000, -0.06250, 0.06250, 0.00000, 0.00000, 0.00000, 0.03125, 0.03125, 0.03125, 0.03125, 0.03125, 0.00000, 0.03125, 0.00000, 0.00000, 0.03125, 0.03125, 0.00000, -0.03125, 0.00000, -0.06250, 0.06250, 0.00000, 0.03125, 0.03125, -0.03125, -0.06250, 0.03125, -0.03125, 0.06250, 0.06250, -0.03125, 0.03125, 0.09375, -0.03125, 0.00000, -0.03125, 0.00000, -0.06250, -0.03125, 0.00000, 0.00000, 0.00000, -0.03125, 0.00000, 0.00000, 0.00000, 0.00000, 0.00000, 0.03125, -0.03125, 0.03125, -0.06250, -0.06250, 0.06250, 0.00000, 0.06250, -0.03125, 0.03125, -0.03125, -0.03125, 0.03125, 0.06250, 0.00000, 0.00000, 0.03125, -0.03125, 0.00000, 0.03125, 0.00000, 0.00000, 0.03125, 0.03125, 0.00000, 0.06250, 0.00000, 0.06250, 0.03125, 0.03125, 0.03125, -0.03125, -0.03125, 0.00000, 0.00000, 0.03125, 0.03125, -0.03125, -0.03125, 0.03125, 0.00000, 0.00000, 0.00000, -0.03125, 0.03125, -0.03125, 0.06250, 0.03125, -0.06250, -0.03125, -0.06250, -0.03125, 0.00000, 0.03125, -0.03125, -0.06250, -0.03125, 0.00000, -0.03125, 0.06250, 0.00000, -0.06250, -0.03125, 0.09375, 0.06250, 0.03125, 0.06250, -0.06250, -0.06250, 0.03125, -0.06250, 0.06250, 0.00000, -0.03125, -0.06250, 0.00000, 0.00000, 0.03125, 0.00000, -0.06250, -0.03125, 0.00000, 0.00000, -0.03125, 0.03125, -0.03125, -0.03125, 0.00000, -0.03125, -0.03125, 0.00000, 0.00000, 0.03125, 0.00000, 0.00000, 0.03125, -0.03125, 0.00000, 0.03125, 0.00000, 0.00000, 0.03125, -0.03125, 0.06250, -0.09375, -0.03125, 0.03125, -0.06250, -0.03125, 0.03125, 0.00000, 0.00000, -0.03125, 0.06250, -0.03125, 0.06250, 0.03125, -0.06250, 0.06250, -0.03125, 0.00000, -0.03125, -0.06250, 0.03125, 0.03125, -0.06250, 0.03125, 0.00000, -0.06250, 0.00000, 0.00000, 0.00000, 0.03125, 0.00000, 0.00000, 0.03125, 0.03125, 0.03125, -0.03125, 0.06250, 0.00000, 0.00000, 0.06250, 0.00000, 0.03125, 0.00000, -0.03125, 0.06250, -0.03125, 0.03125, 0.03125, 0.03125, 0.03125, 0.00000, 0.06250, 0.00000, 0.00000, -0.06250, 0.00000, 0.03125, -0.03125, 0.03125, 0.00000, 0.03125, 0.03125, -0.03125, 0.03125, 0.03125, -0.06250, 0.00000, 0.03125, -0.09375, -0.03125, 0.06250, -0.03125, -0.03125, 0.03125, -0.03125, 0.03125, -0.06250, 0.03125, 0.06250, -0.03125, 0.03125, 0.03125, 0.00000, 0.00000, -0.03125, 0.03125, -0.03125, 0.00000, -0.03125, 0.06250, 0.00000, 0.00000, 0.06250, 0.00000, 0.00000, 0.03125, 0.00000, 0.00000, 0.03125, 0.03125, 0.06250, 0.00000, 0.00000, 0.03125, 0.00000, -0.03125, 0.03125, 0.00000, -0.03125, 0.00000, -0.03125, -0.06250, 0.00000, 0.00000, -0.03125, 0.03125, -0.03125, -0.03125, -0.03125, 0.03125, 0.00000, -0.03125, 0.03125, -0.03125, -0.03125, -0.06250, 0.00000, 0.00000, 0.03125, 0.00000, 0.06250, 0.03125, 0.00000, 0.00000, 0.00000, -0.06250, 0.03125, -0.03125, -0.03125, 0.03125, 0.00000, 0.03125, 0.00000, -0.03125, 0.00000, 0.06250, -0.06250, -0.03125, -0.03125, -0.03125, -0.09375, -0.03125, 0.03125, 0.00000, -0.06250, 0.03125, 0.03125, -0.03125, 0.03125, 0.06250, 0.06250, 0.00000, 0.06250, 0.03125, 0.03125, 0.00000, 0.00000, 0.03125, 0.00000, -0.03125, 0.00000, -0.03125, -0.03125, 0.03125, -0.09375, -0.06250, -0.03125, 0.03125, 0.03125, 0.03125, -0.03125, -0.06250, -0.03125, 0.00000, 0.00000, -0.06250, 0.00000, -0.09375, -0.03125, 0.00000, 0.00000, 0.06250, 0.00000, 0.03125, -0.03125, 0.00000, 0.03125, 0.00000, -0.03125, -0.09375, 0.00000, 0.06250, -0.03125, 0.03125, -0.03125, -0.09375, 0.00000, 0.03125, -0.06250, -0.03125, -0.06250, 0.00000, -0.03125, 0.06250, -0.03125, -0.09375, 0.00000, -0.03125, -0.03125, 0.00000, 0.00000, 0.00000, 0.03125, -0.03125, 0.06250, 0.03125, -0.03125, 0.00000, -0.03125, -0.03125, 0.03125, 0.00000, 0.00000, -0.03125, 0.03125, 0.03125, -0.03125, 0.03125, -0.03125, 0.03125, -0.03125, -0.03125, 0.00000, 0.00000, 0.00000, 0.03125, 0.06250, 0.00000, 0.00000, 0.03125, 0.00000, 0.03125, 0.00000, 0.00000, 0.03125, 0.00000, 0.00000, -0.03125, 0.03125, 0.00000, 0.03125, 0.09375, 0.03125, 0.03125, 0.03125, -0.03125, 0.00000, -0.03125, -0.03125, 0.03125, -0.03125, -0.06250, 0.06250, -0.03125, -0.03125, 0.00000, 0.00000, 0.00000, 0.00000, -0.03125, -0.03125, 0.03125, -0.06250, -0.03125, -0.09375, 0.00000, 0.03125, -0.03125, 0.00000, -0.03125, 0.03125, 0.00000, -0.06250, -0.06250, 0.03125, 0.00000, 0.03125, -0.06250, 0.03125, 0.00000, 0.00000, 0.00000, -0.03125, 0.06250, 0.00000, 0.00000, 0.06250, 0.00000, 0.00000, -0.03125, 0.03125, -0.06250, -0.03125, -0.03125, 0.00000, 0.03125, 0.06250, 0.00000, 0.06250, 0.00000, -0.03125, 0.00000, 0.00000, 0.03125, 0.00000, 0.03125, -0.03125, -0.03125, -0.03125, 0.00000, 0.00000, 0.00000, 0.03125, 0.00000, 0.03125, 0.06250, 0.00000, 0.06250, 0.06250, -0.06250, -0.06250, 0.00000, -0.03125, 0.03125, 0.03125, 0.00000, 0.00000, 0.03125, 0.03125, 0.03125, 0.00000, 0.00000, -0.03125, 0.00000, 0.06250, 0.03125, -0.03125, 0.00000, -0.06250, 0.06250, -0.03125, 0.03125, 0.00000, 0.00000, -0.03125, 0.00000, 0.00000, 0.03125, 0.00000, 0.06250, 0.00000, 0.00000, -0.03125, 0.06250, -0.03125, 0.03125, 0.00000, -0.03125, 0.06250, 0.00000, -0.03125, 0.00000, -0.06250, 0.03125, 0.00000, -0.03125, 0.00000, 0.00000, 0.03125, -0.06250, 0.00000, -0.03125, 0.00000, -0.03125, 0.00000, -0.03125, 0.00000, 0.00000, 0.06250, -0.03125, 0.06250, -0.03125, 0.03125, -0.06250, -0.03125, -0.03125, -0.03125, 0.00000, 0.00000, 0.00000, 0.00000, 0.06250, -0.06250, -0.03125, -0.03125, 0.00000, 0.03125, 0.00000, 0.03125, -0.03125, 0.00000, -0.03125, 0.06250, -0.03125, 0.00000, 0.00000, 0.03125, 0.03125, -0.06250, 0.00000, -0.06250, 0.00000, 0.00000, 0.03125, 0.03125, 0.03125, 0.00000, -0.03125, 0.00000, -0.03125, -0.06250, -0.06250, 0.00000, 0.03125, 0.03125, -0.03125, 0.06250, 0.00000, -0.03125, 0.06250, 0.00000, -0.06250, -0.03125, 0.00000, 0.03125, 0.00000, 0.03125, 0.03125, -0.03125, 0.03125, -0.03125, -0.03125, 0.03125, 0.03125, -0.03125, -0.03125, -0.06250, 0.03125, 0.03125, 0.03125, 0.03125, 0.03125, 0.00000, 0.00000, 0.06250, 0.00000, 0.09375, 0.03125, 0.03125, 0.03125, 0.00000, -0.03125, 0.00000, 0.03125, 0.00000, 0.00000, 0.03125, 0.00000, -0.06250, 0.03125, -0.03125, -0.03125, -0.06250, -0.03125, 0.00000, -0.06250, -0.03125, -0.03125, 0.00000, -0.03125, 0.00000, -0.09375, -0.03125, -0.03125, -0.06250, -0.03125, -0.03125, 0.03125, -0.03125, 0.06250, 0.00000, 0.06250, 0.03125, 0.06250, 0.00000, -0.03125, 0.00000, 0.03125, 0.09375, -0.06250, -0.03125, 0.00000, 0.00000, 0.03125, -0.06250, -0.09375, 0.00000, 0.03125, -0.06250, -0.03125, -0.03125, 0.00000, 0.00000, 0.00000, -0.03125, -0.06250, 0.00000, -0.03125, 0.00000, 0.03125, 0.00000, 0.03125, 0.00000, 0.03125, 0.00000, 0.00000, 0.06250, -0.06250, 0.00000, 0.00000, -0.03125, -0.03125, -0.03125, 0.03125, 0.00000, 0.00000, 0.03125, -0.03125, 0.00000, 0.00000, -0.06250, -0.03125, -0.03125, 0.00000, 0.00000, 0.03125, 0.03125, -0.03125, 0.00000, 0.03125, 0.00000, 0.06250, -0.06250, -0.03125, 0.00000, 0.03125, 0.00000, 0.03125, 0.06250, 0.00000, -0.06250, 0.00000, -0.03125, 0.00000, -0.06250, 0.03125, 0.03125, 0.00000, -0.03125, -0.03125, 0.00000, -0.03125, 0.03125, 0.03125, 0.03125, 0.00000, 0.03125, 0.03125, 0.03125, 0.03125, 0.00000, -0.03125, 0.03125, -0.06250, -0.03125, 0.00000, 0.00000, -0.03125, -0.03125, -0.03125, 0.03125, 0.00000, 0.00000, -0.03125, 0.00000, 0.00000, 0.00000, 0.06250, 0.00000, 0.03125, -0.03125, 0.00000, 0.00000, 0.00000, -0.09375, -0.06250, 0.03125, 0.03125, 0.03125, 0.00000, -0.03125, 0.00000, 0.06250, 0.00000, -0.06250, 0.06250, 0.06250, -0.06250, 0.06250, 0.03125, 0.03125, -0.03125, 0.00000, 0.00000, 0.00000, -0.06250, 0.06250, 0.00000, -0.03125, -0.03125, 0.00000, 0.03125, 0.03125, -0.03125, 0.00000, 0.03125, 0.00000, 0.00000, 0.06250, 0.00000, -0.03125, 0.00000, -0.03125, 0.00000, 0.03125, 0.00000, -0.03125, 0.06250, 0.03125, -0.09375, -0.06250, -0.03125, 0.03125, 0.00000, 0.03125, 0.00000, -0.03125, 0.06250, 0.03125, -0.03125, 0.00000, 0.03125, 0.03125, -0.06250, -0.03125, -0.03125, 0.03125, 0.00000, 0.03125, -0.03125, 0.00000, -0.06250, 0.03125, 0.03125, 0.00000, 0.03125, 0.00000, 0.00000, 0.00000, -0.03125, -0.06250, -0.03125, 0.03125, -0.06250, 0.00000, -0.03125, 0.03125, -0.03125, 0.03125, 0.00000, 0.00000, 0.00000, -0.03125, 0.03125, -0.06250, 0.00000, 0.00000, -0.03125, 0.03125, 0.03125, 0.00000, -0.06250, -0.09375, -0.09375, -0.03125, 0.00000, -0.03125, 0.03125, 0.00000, 0.00000, 0.03125, 0.00000, 0.00000, 0.09375, 0.03125, 0.03125, 0.03125, 0.03125, 0.03125, -0.03125, 0.03125, 0.00000, 0.03125, -0.03125, 0.06250, -0.03125, 0.00000, 0.06250, -0.03125, 0.00000, -0.03125, 0.00000, 0.00000, 0.00000, 0.03125, 0.00000, 0.03125, 0.03125, -0.03125, 0.09375, -0.03125, -0.03125, 0.03125, 0.00000, -0.03125, 0.03125, 0.03125, 0.00000, -0.03125, 0.00000, 0.03125, -0.03125, -0.03125, -0.03125, 0.00000, 0.03125, 0.00000, 0.00000, 0.06250, 0.00000, -0.06250, 0.03125, 0.03125, 0.00000, 0.00000, 0.03125, -0.06250, 0.00000, 0.00000, 0.03125, 0.03125, -0.03125, -0.03125, -0.03125, -0.03125, 0.00000, 0.00000, 0.03125, 0.03125, -0.03125, 0.06250, 0.03125, 0.03125, -0.03125, -0.03125, 0.03125, 0.00000, 0.03125, 0.00000, 0.00000, 0.00000, 0.03125, 0.03125, 0.03125, 0.00000, -0.03125, -0.09375, -0.03125, -0.06250, -0.06250, -0.06250, 0.00000, 0.03125, -0.06250, 0.00000, 0.00000, -0.03125, -0.03125, -0.03125, 0.03125, 0.03125, 0.03125, 0.03125, 0.03125, -0.09375, -0.03125, 0.03125, 0.00000, 0.06250, -0.06250, 0.00000, 0.03125, 0.03125, 0.00000, 0.00000, -0.06250, -0.03125, 0.03125, -0.03125, -0.03125, -0.06250, -0.03125, -0.09375, -0.03125, 0.00000, 0.00000, 0.00000, 0.03125, 0.03125, 0.03125, 0.00000, 0.03125, -0.06250, 0.00000, 0.03125, -0.03125, 0.00000, 0.00000, 0.00000, 0.03125, 0.00000, 0.06250, 0.00000, 0.00000, -0.03125, 0.03125, 0.00000, -0.03125, 0.00000, 0.03125, -0.06250, -0.06250, 0.00000, 0.00000, -0.03125, 0.06250, -0.06250, -0.03125, -0.03125, -0.03125, 0.00000, -0.03125, 0.00000, 0.00000, 0.00000, -0.03125, -0.03125, -0.03125, -0.03125, -0.03125, -0.03125, 0.00000, -0.03125, 0.00000, -0.03125, 0.00000, 0.00000, -0.03125, -0.03125, -0.03125, 0.00000, 0.00000, 0.06250, 0.00000, 0.03125, -0.06250, 0.00000, -0.03125, 0.03125, 0.00000, 0.03125, 0.03125, 0.06250, -0.03125, 0.03125, 0.00000, -0.03125, -0.03125, 0.00000, 0.00000, 0.03125, -0.03125, 0.03125, -0.06250, -0.06250, -0.03125, 0.00000, 0.03125, -0.03125, 0.03125, 0.00000, -0.03125, 0.00000, 0.03125, 0.00000, 0.06250, 0.00000, -0.09375, 0.06250, -0.06250, 0.03125, 0.03125, 0.06250, -0.03125, 0.00000, 0.03125, 0.00000, -0.06250, 0.06250, 0.00000, -0.03125, 0.00000, -0.06250, 0.00000, 0.03125, -0.03125, 0.00000, 0.03125, 0.00000, 0.00000, -0.03125, 0.06250, 0.00000, 0.00000, -0.03125, 0.03125, 0.00000, 0.00000, 0.03125, -0.03125, -0.03125, 0.03125, -0.03125, 0.00000, 0.00000, -0.06250, 0.03125, 0.00000, 0.00000, 0.00000, 0.00000, 0.00000, 0.03125, -0.03125, 0.00000, 0.06250, 0.03125, -0.03125, -0.03125, 0.00000, 0.00000, 0.00000, 0.06250, 0.03125, -0.03125, 0.03125, 0.06250, -0.09375, -0.06250, 0.00000, 0.00000, 0.03125, -0.03125, -0.03125, -0.06250, 0.00000, -0.03125, -0.03125, -0.03125, 0.06250, 0.00000, -0.03125, 0.00000, -0.03125, 0.00000, 0.00000, 0.03125, 0.00000, -0.06250, 0.03125, 0.00000, -0.03125, 0.00000, -0.03125, -0.06250, 0.03125, -0.03125, 0.00000, -0.03125, 0.00000, 0.00000, -0.03125, -0.03125, 0.00000, -0.09375, 0.06250, -0.03125, 0.00000, 0.03125, 0.00000, 0.00000, 0.03125, 0.06250, 0.03125, -0.03125, 0.00000, 0.00000, 0.03125, 0.00000, -0.03125, 0.00000, -0.03125, 0.06250, 0.00000, -0.03125, -0.06250, -0.06250, -0.03125, 0.03125, 0.00000, 0.00000, -0.03125, -0.03125, 0.03125, 0.06250, 0.00000, 0.00000, -0.03125, 0.03125, -0.06250, -0.03125, -0.06250, -0.03125, 0.03125, 0.00000, -0.03125, -0.03125, -0.03125, 0.00000, 0.03125, -0.03125, 0.03125, -0.03125, 0.03125, 0.03125, 0.00000, 0.00000, -0.03125, 0.00000, 0.00000, 0.00000, 0.00000, -0.03125, 0.00000, 0.00000, -0.03125, 0.03125, 0.03125, 0.03125, 0.03125, 0.00000, 0.03125, 0.00000, -0.03125, -0.03125, 0.03125, -0.03125, 0.03125, 0.00000, 0.00000, 0.06250, 0.06250, -0.03125, -0.03125, 0.03125, 0.06250, -0.03125, 0.03125, -0.03125, -0.03125, 0.00000, 0.06250, 0.03125, 0.06250, 0.03125, -0.09375, -0.09375, -0.03125, 0.03125, -0.03125, 0.00000, -0.03125, -0.03125, -0.09375, -0.06250, -0.03125, 0.00000, -0.06250, -0.03125, 0.03125, -0.03125, 0.00000, -0.03125, 0.03125, 0.00000, 0.06250, 0.03125, 0.00000, 0.03125, 0.00000, -0.03125, 0.03125, 0.00000, 0.00000, 0.00000, -0.06250, 0.03125, 0.03125, -0.06250, -0.06250, 0.00000, -0.03125, -0.03125, -0.03125, -0.06250, -0.06250, 0.03125, 0.00000, 0.00000, 0.00000, 0.03125, -0.03125, 0.03125, -0.03125, 0.00000, 0.00000, 0.06250, -0.03125, -0.06250, 0.03125, 0.00000, 0.03125, -0.03125, 0.03125, 0.00000, -0.03125, -0.03125, 0.00000, -0.03125, 0.00000, 0.06250, -0.06250, 0.00000, 0.03125, 0.00000, -0.03125, -0.03125, -0.03125, 0.00000, 0.00000, 0.00000, 0.06250, -0.03125, -0.03125, 0.03125, 0.03125, -0.03125, 0.00000, -0.03125, 0.00000, -0.03125, 0.03125, 0.06250, 0.03125, 0.00000, 0.00000, 0.03125, 0.00000, -0.06250, 0.00000, 0.00000, 0.00000, 0.06250, -0.06250, 0.06250, 0.03125, -0.03125, -0.03125, 0.00000, 0.06250, 0.00000, 0.00000, 0.03125, 0.00000, -0.06250, -0.03125, -0.03125, 0.06250, 0.00000, -0.03125, -0.03125, 0.00000, 0.00000, 0.00000, -0.03125, -0.03125, 0.03125, -0.03125, 0.03125, 0.03125, 0.00000, -0.03125, 0.00000, -0.03125, 0.00000, -0.03125, -0.03125, 0.03125, -0.03125, -0.06250, 0.06250, 0.00000, 0.00000, -0.03125, 0.03125, 0.00000, 0.03125, 0.06250, -0.03125, -0.03125, 0.00000, 0.03125, -0.03125, -0.06250, 0.00000, -0.03125, -0.06250, -0.03125, -0.06250, -0.03125, -0.03125, -0.03125, 0.00000, 0.00000, -0.03125, 0.00000, -0.03125, 0.00000, -0.03125, -0.06250, 0.00000, 0.00000, -0.03125, -0.03125, -0.03125, 0.00000, 0.00000, -0.03125, -0.03125, 0.03125, 0.03125, 0.00000, 0.03125, 0.00000, -0.03125, 0.03125, -0.06250, -0.06250, 0.00000, 0.06250, -0.03125, 0.00000, 0.00000, 0.00000, 0.00000, 0.09375, -0.03125, -0.03125, 0.03125, -0.03125, 0.03125, -0.03125, 0.00000, 0.00000, -0.03125, 0.06250, -0.03125, 0.03125, 0.03125, 0.06250, 0.00000, 0.00000, 0.00000, 0.00000, -0.03125, 0.03125, 0.00000, -0.03125, 0.00000, 0.00000, 0.00000, 0.03125, 0.06250, -0.06250, 0.00000, 0.00000, 0.00000, 0.00000, 0.03125, 0.00000, 0.03125, -0.03125, 0.00000, 0.06250, -0.03125, 0.00000, 0.06250, -0.06250, -0.06250, -0.06250, -0.03125, 0.00000, 0.00000, -0.06250, 0.00000, 0.00000, 0.00000, 0.00000, 0.03125, 0.00000, -0.03125, 0.00000, 0.00000, 0.00000, 0.03125, 0.00000, 0.03125, -0.03125, -0.09375, 0.00000, 0.00000, -0.06250, 0.00000, 0.03125, 0.03125, 0.06250, -0.03125, -0.03125, 0.00000, 0.00000, 0.06250, -0.03125, 0.00000, 0.00000, 0.00000, 0.03125, 0.06250, 0.00000, -0.03125, 0.03125, -0.03125, 0.00000, -0.03125, -0.03125, 0.00000, 0.00000, -0.03125, -0.03125, 0.00000, 0.03125, -0.03125, -0.03125, 0.00000, -0.03125, 0.03125, 0.00000, 0.09375, 0.06250, -0.03125, 0.03125, -0.06250, 0.03125, 0.06250, 0.00000, -0.03125, 0.00000, 0.06250, 0.03125, -0.03125, 0.03125, -0.03125, -0.03125, 0.00000, 0.00000, 0.03125, 0.00000, 0.09375, 0.03125, 0.00000, -0.03125, 0.03125, 0.06250, 0.00000, 0.03125, 0.00000, 0.03125, 0.00000, 0.03125, -0.06250, -0.06250, 0.06250, -0.03125, -0.06250, 0.00000, 0.03125, -0.06250, 0.00000, 0.06250, 0.06250, 0.00000, 0.06250, 0.03125, 0.03125, 0.03125, 0.00000, -0.03125, -0.06250, -0.06250, 0.00000, -0.03125, 0.03125, -0.03125, 0.06250, 0.00000, 0.03125, 0.03125, 0.00000, 0.00000, -0.03125, 0.00000, -0.03125, -0.03125, 0.03125, -0.03125, -0.03125, 0.06250, 0.00000, 0.03125, -0.06250, -0.03125, 0.06250, 0.00000, 0.00000, 0.00000, -0.03125, -0.03125, 0.00000, 0.03125, 0.00000, 0.00000, -0.03125, -0.03125, -0.03125, 0.03125, 0.06250, 0.00000, 0.00000, 0.00000, 0.00000, 0.00000, -0.03125, -0.03125, -0.06250, 0.03125, 0.03125, 0.00000, -0.03125, 0.06250, 0.00000, 0.03125, -0.03125, 0.00000, 0.03125, 0.00000, 0.03125, -0.03125, 0.00000, -0.06250, -0.03125, 0.00000, 0.03125, 0.00000, 0.03125, -0.06250, 0.00000, 0.00000, 0.00000, 0.06250, -0.06250, -0.03125, 0.03125, -0.03125, -0.03125, 0.00000, 0.00000, -0.03125, 0.00000, 0.00000, 0.03125, -0.06250, -0.03125, -0.03125, -0.03125, -0.03125, -0.03125, 0.03125, 0.00000, 0.03125, 0.00000, 0.03125, 0.00000, 0.00000, 0.00000, 0.06250, 0.06250, -0.03125, -0.03125, 0.03125, -0.03125, 0.00000, 0.00000, -0.03125, 0.03125, -0.03125, 0.03125, 0.00000, 0.00000, -0.03125, 0.03125, 0.00000, 0.03125, 0.00000, 0.00000, -0.06250, 0.00000, -0.06250, 0.03125, 0.00000, -0.03125, 0.00000, -0.03125, 0.00000, -0.03125, 0.00000, -0.03125, 0.00000, -0.03125, -0.06250, -0.03125, 0.00000, 0.00000, -0.03125, 0.03125, 0.00000, 0.00000, -0.03125, 0.00000, 0.00000, 0.00000, -0.03125, 0.03125, 0.03125, -0.03125, 0.00000, 0.00000, 0.00000, 0.00000, 0.03125, 0.00000, 0.00000, -0.03125, 0.03125, 0.00000, 0.00000, -0.03125, -0.03125, 0.00000, -0.06250, 0.03125, 0.00000, 0.03125, -0.06250, 0.00000, 0.00000, -0.03125, 0.03125, 0.06250, 0.00000, -0.06250, -0.06250, -0.03125, 0.03125, 0.03125, -0.03125, -0.03125, 0.00000, -0.03125, 0.00000, -0.03125, -0.03125, 0.00000, 0.00000, -0.03125, -0.03125, 0.00000, 0.00000, 0.03125, -0.06250, 0.00000, 0.06250, 0.03125, 0.00000, 0.03125, -0.06250, 0.03125, 0.00000, -0.03125, 0.00000, -0.03125, 0.03125, 0.03125, 0.06250, 0.00000, -0.03125, 0.06250, 0.00000, 0.03125, 0.00000, 0.06250, -0.03125, 0.06250, 0.03125, 0.03125, 0.03125, 0.03125, 0.00000, 0.00000, -0.03125, -0.03125, 0.00000, 0.03125, 0.00000, 0.00000, -0.03125, 0.03125, 0.00000, 0.03125, -0.03125, -0.06250, 0.00000, 0.00000, 0.00000, 0.03125, 0.06250, -0.06250, 0.06250, 0.06250, 0.00000, 0.03125, -0.06250, 0.00000, 0.03125, -0.03125, -0.03125, 0.06250, 0.03125, 0.03125, -0.03125, -0.03125, 0.03125, 0.00000, -0.03125, 0.03125, 0.03125, 0.03125, 0.00000, 0.06250, -0.03125, -0.03125, 0.00000, -0.03125, -0.03125, 0.00000, 0.03125, -0.03125, 0.03125, -0.03125, 0.03125, 0.06250, 0.00000, 0.00000, 0.03125, 0.00000, -0.03125, 0.00000, -0.03125, 0.00000, 0.03125, -0.03125, 0.00000, 0.03125, 0.03125, 0.00000, -0.03125, 0.00000, 0.00000, 0.00000, -0.06250, -0.06250, 0.03125, 0.03125, 0.06250, 0.00000, 0.00000, -0.03125, -0.06250, 0.00000, 0.00000, 0.00000, 0.00000, -0.03125, 0.00000, 0.03125, 0.03125, -0.06250, 0.00000, 0.03125, 0.00000, -0.03125, 0.00000, 0.06250, 0.00000, 0.00000, -0.03125, -0.03125, 0.00000, 0.06250, 0.03125, 0.00000, 0.03125, 0.03125, -0.03125, -0.03125, 0.03125, 0.00000, 0.00000, -0.03125, 0.00000, 0.06250, 0.06250, -0.03125, 0.06250, -0.03125, 0.03125, 0.03125, 0.00000, 0.03125, -0.03125, 0.00000, -0.03125, 0.03125, -0.03125, 0.03125, -0.03125, 0.03125, -0.06250, 0.03125, -0.06250, 0.00000, -0.03125, 0.00000, 0.00000, 0.03125, -0.03125, 0.06250, 0.06250, 0.00000, -0.06250, 0.03125, -0.06250, 0.03125, 0.06250, 0.00000, -0.03125, -0.03125, -0.03125, 0.06250, 0.03125, 0.00000, 0.00000, 0.00000, 0.00000, 0.00000, -0.03125, -0.03125, -0.03125, -0.03125, 0.00000, 0.03125, 0.00000, -0.06250, 0.00000, 0.03125, -0.03125, -0.03125, 0.03125, -0.03125, 0.06250, -0.03125, 0.00000, 0.06250, -0.03125, 0.06250, -0.06250, -0.03125, 0.00000, 0.00000, 0.00000, 0.06250, -0.03125, 0.06250, 0.06250, -0.03125, 0.03125, -0.03125, -0.03125, 0.00000, 0.06250, 0.00000, -0.03125, 0.06250, -0.03125, 0.03125, -0.06250, 0.00000, 0.00000, -0.03125, 0.03125, -0.03125, 0.00000, 0.00000, 0.00000, -0.03125, -0.03125, 0.00000, 0.00000, 0.00000, -0.03125, -0.03125, 0.03125, 0.00000, 0.03125, 0.00000, -0.03125, 0.00000, 0.00000, -0.06250, -0.03125, -0.03125, -0.03125, 0.00000, 0.00000, 0.03125, 0.00000, -0.03125, 0.03125, 0.00000, 0.03125, -0.06250, 0.03125, 0.03125, -0.03125, 0.03125, 0.00000, -0.06250, -0.03125, 0.03125, 0.00000, -0.03125, -0.06250, -0.06250, -0.03125, -0.03125, 0.06250, 0.06250, 0.00000, 0.03125, 0.00000, 0.03125, -0.03125, -0.03125, -0.06250, 0.03125, 0.03125, -0.03125, 0.03125, 0.03125, 0.00000, 0.00000, 0.03125, 0.00000, -0.03125, -0.03125, 0.06250, 0.00000, 0.00000, 0.00000, -0.06250, 0.03125, 0.00000, 0.03125, -0.09375, -0.03125, 0.06250, 0.00000, 0.00000, 0.00000, 0.03125, 0.00000, 0.00000, 0.06250, 0.00000, 0.00000, -0.03125, 0.00000, 0.00000, 0.00000, -0.06250, -0.03125, 0.00000, 0.00000, 0.03125, 0.00000, -0.06250, 0.03125, 0.03125, -0.03125, 0.03125, 0.00000, -0.03125, 0.00000, -0.03125, 0.03125, 0.00000, 0.00000, 0.00000, 0.03125, -0.03125, 0.03125, 0.00000, 0.00000, 0.00000, -0.03125, -0.03125, 0.00000, -0.06250, 0.03125, 0.06250, -0.09375, -0.03125, 0.00000, -0.03125, 0.00000, 0.03125, 0.00000, 0.00000, 0.03125, 0.00000, 0.00000, 0.03125, -0.03125, 0.06250, -0.03125, 0.03125, -0.06250, 0.06250, 0.00000, -0.03125, 0.00000, 0.00000, -0.03125, 0.00000, -0.03125, -0.03125, 0.00000, -0.03125, 0.03125, 0.00000, 0.06250, 0.00000, 0.03125, 0.03125, 0.03125, 0.00000, -0.03125, 0.00000, 0.00000, -0.03125, 0.00000, 0.03125, -0.03125, -0.03125, 0.00000, 0.03125, 0.00000, 0.00000, 0.00000, 0.03125, 0.00000, 0.06250, -0.03125, -0.03125, -0.03125, 0.00000, 0.03125, -0.03125, -0.03125, 0.03125, 0.06250, 0.03125, -0.03125, 0.03125, 0.00000, -0.03125, 0.06250, 0.03125, -0.03125, 0.03125, 0.00000, 0.00000, 0.03125, 0.03125, 0.00000, -0.03125, -0.03125, -0.03125, 0.00000, 0.00000, 0.00000, -0.03125, 0.06250, 0.03125, -0.03125, -0.03125, 0.00000, 0.03125, 0.03125, -0.06250, 0.00000, 0.00000, 0.00000, 0.03125, -0.03125, 0.06250, -0.03125, -0.03125, -0.06250, 0.00000, 0.06250, 0.00000, -0.03125, -0.03125, -0.03125, -0.06250, 0.00000, -0.09375, -0.03125, 0.00000, -0.03125, 0.06250, -0.03125, 0.03125, 0.03125, -0.03125, 0.00000, -0.03125, 0.06250, -0.03125, 0.03125, 0.03125, -0.03125, -0.06250, 0.06250, -0.03125, -0.03125, 0.00000, 0.00000, 0.00000, 0.00000, 0.00000, 0.03125, 0.03125, 0.03125, 0.06250, -0.06250, -0.03125, 0.00000, 0.00000, -0.03125, 0.06250, 0.03125, -0.03125, 0.00000, -0.03125, -0.03125, 0.00000, -0.03125, 0.00000, -0.06250, 0.00000, 0.00000, -0.03125, -0.03125, 0.06250, 0.00000, -0.03125, 0.03125, 0.00000, 0.00000, -0.03125, 0.00000, 0.03125, 0.03125, 0.00000, 0.00000, -0.03125, 0.03125, 0.03125, 0.03125, 0.00000, 0.00000, -0.03125, -0.03125, -0.06250, -0.06250, -0.03125, 0.03125, -0.06250, 0.00000, 0.00000, -0.03125, -0.03125, 0.00000, 0.00000, 0.03125, 0.00000, 0.00000, 0.00000, 0.03125, -0.03125, 0.00000, 0.00000, -0.06250, -0.06250, 0.00000, -0.06250, -0.03125, 0.03125, 0.00000, 0.00000, 0.03125, 0.00000, -0.03125, 0.00000, -0.06250, 0.00000, 0.03125, 0.00000, -0.06250, -0.03125, 0.00000, -0.03125, 0.00000, -0.03125, -0.03125, 0.06250, -0.06250, 0.00000, -0.03125, 0.03125, -0.03125, -0.06250, 0.00000, 0.00000, -0.03125, -0.06250, 0.00000, 0.03125, 0.03125, 0.00000, 0.00000, -0.06250, -0.03125, -0.03125, 0.00000, 0.03125, -0.03125, 0.03125, 0.06250, -0.06250, 0.03125, 0.03125, -0.06250, 0.00000, 0.00000, -0.03125, -0.06250, 0.06250, -0.06250, 0.00000, -0.03125, -0.03125, 0.00000, -0.03125, 0.03125, 0.03125, 0.03125, 0.00000, 0.03125, 0.00000, 0.03125, 0.03125, 0.03125, 0.03125, -0.03125, -0.03125, -0.03125, 0.00000, 0.00000, 0.06250, -0.03125, 0.03125, -0.03125, -0.03125, 0.00000, 0.06250, -0.06250, 0.06250, 0.06250, -0.03125, -0.03125, 0.06250, -0.06250, 0.06250, -0.06250, 0.00000, 0.03125, 0.03125, -0.06250, 0.03125, 0.00000, 0.00000, 0.06250, 0.00000, -0.03125, -0.03125, 0.00000, 0.06250, 0.00000, -0.03125, -0.03125, 0.03125, -0.03125, -0.06250, 0.06250, 0.03125, -0.06250, -0.03125, -0.06250, 0.00000, 0.06250, 0.03125, -0.03125, 0.00000, -0.03125, 0.03125, 0.00000, 0.00000, -0.06250, 0.00000, 0.03125, 0.00000, 0.03125, -0.06250, 0.06250, 0.00000, -0.03125, -0.03125, -0.03125, -0.03125, 0.06250, 0.00000, 0.03125, 0.03125, -0.06250, 0.00000, -0.06250, -0.03125, -0.03125, 0.03125, -0.03125, 0.00000, 0.00000, 0.03125, 0.00000, 0.03125, 0.00000, 0.00000, 0.03125, 0.00000, -0.06250, 0.00000, 0.00000, -0.03125, -0.03125, -0.06250, 0.03125, 0.00000, -0.06250, -0.03125, -0.03125, -0.03125, -0.03125, -0.09375, 0.03125, 0.06250, 0.00000, 0.03125, 0.03125, 0.00000, -0.03125, -0.03125, 0.03125, 0.00000, -0.03125, 0.03125, 0.00000, -0.03125, 0.03125, 0.00000, -0.06250, 0.03125, 0.00000, 0.03125, 0.00000, 0.03125, 0.00000, 0.06250, -0.06250, 0.00000, 0.00000, 0.03125, 0.00000, -0.03125, -0.06250, -0.03125, 0.00000, -0.03125, 0.06250, 0.00000, 0.03125, 0.00000, 0.00000, -0.06250, -0.03125, 0.00000, 0.06250, -0.03125, -0.06250, 0.03125, 0.06250, -0.06250, -0.06250, 0.06250, 0.03125, 0.03125, 0.00000, 0.00000, 0.00000, 0.03125, 0.00000, 0.03125, 0.00000, 0.00000, 0.00000, -0.06250, 0.00000, 0.00000, 0.00000, 0.00000, 0.00000, 0.06250, 0.00000, 0.03125, 0.03125, -0.03125, 0.03125, 0.03125, 0.00000, 0.03125, 0.00000, -0.06250, -0.06250, -0.03125, 0.00000, 0.00000, 0.00000, 0.03125, -0.03125, 0.03125, -0.06250, -0.06250, 0.03125, 0.00000, -0.03125, 0.00000, 0.00000, -0.03125, -0.03125, -0.03125, -0.06250, 0.00000, 0.00000, 0.03125, -0.06250, 0.00000, 0.06250, -0.06250, -0.06250, 0.00000, 0.00000, 0.00000, 0.00000, 0.00000, 0.00000, -0.03125, 0.00000, -0.03125, 0.03125, 0.00000, 0.06250, 0.06250, -0.03125, 0.03125, 0.00000, -0.06250, 0.03125, 0.00000, -0.03125, 0.00000, 0.00000, 0.00000, 0.00000, 0.00000, -0.06250, 0.00000, 0.00000, -0.03125, 0.00000, 0.03125, 0.00000, 0.00000, 0.00000, 0.00000, 0.00000, 0.00000, -0.03125, 0.03125, 0.00000, -0.06250, 0.03125, -0.03125, 0.00000, -0.03125, 0.00000, 0.00000, -0.03125, 0.03125, 0.06250, 0.06250, -0.03125, -0.03125, 0.00000, 0.00000, -0.03125, -0.03125, 0.03125, 0.00000, -0.03125, 0.00000, 0.00000, 0.00000, 0.00000, 0.00000, -0.03125, -0.06250, 0.03125, 0.00000, 0.00000, -0.03125, 0.00000, 0.00000, 0.00000, -0.06250, 0.00000, -0.03125, 0.06250, 0.03125, 0.03125, 0.00000, 0.00000, -0.03125, 0.00000, 0.03125, -0.03125, 0.00000, 0.00000, 0.00000, 0.00000, -0.03125, 0.00000, 0.00000, -0.06250, 0.00000, 0.03125, -0.06250, -0.03125, 0.00000, -0.03125, -0.03125, -0.03125, 0.03125, 0.00000, 0.03125, 0.06250, 0.06250, -0.03125, -0.06250, 0.00000, 0.00000, -0.03125, 0.00000, 0.00000, -0.03125, -0.03125, -0.03125, -0.03125, -0.06250, 0.03125, 0.00000, 0.00000, 0.03125, 0.00000, 0.06250, 0.03125, 0.00000, 0.00000, 0.06250, 0.00000, -0.03125, 0.06250, 0.06250, 0.03125, 0.03125, -0.03125, 0.00000, 0.00000, -0.03125, -0.06250, 0.03125, -0.03125, 0.00000, 0.03125, 0.00000, -0.03125, -0.03125, 0.00000, 0.00000, -0.03125, -0.03125, 0.03125, 0.00000, 0.06250, 0.00000, 0.00000, 0.03125, 0.00000, -0.03125, -0.06250, 0.00000, -0.03125, 0.00000, -0.03125, -0.03125, 0.00000, -0.03125, -0.03125, 0.03125, -0.03125, 0.03125, 0.00000, -0.03125, 0.03125, -0.03125, 0.06250, -0.06250, 0.00000, 0.03125, 0.06250, 0.00000, -0.03125, 0.00000, -0.03125, -0.03125, 0.00000, -0.03125, -0.06250, 0.00000, 0.03125, 0.03125, 0.06250, 0.00000, -0.06250, 0.00000, -0.03125, 0.03125, -0.03125, -0.03125, 0.00000, -0.03125, -0.06250, -0.03125, 0.00000, -0.03125, 0.03125, 0.03125, -0.06250, 0.00000, 0.03125, -0.03125, 0.03125, -0.06250, -0.03125, 0.00000, 0.00000, 0.03125, 0.00000, -0.03125, -0.06250, 0.00000, -0.03125, 0.00000, 0.03125, -0.03125, -0.03125, 0.03125, 0.00000, 0.06250, 0.03125, 0.00000, 0.03125, -0.03125, 0.03125, 0.03125, -0.06250, 0.00000, 0.00000, -0.03125, 0.00000, 0.00000, -0.03125, -0.03125, -0.03125, 0.00000, -0.03125, -0.06250, 0.06250, 0.00000, 0.00000, 0.03125, -0.03125, -0.03125, -0.03125, -0.06250, 0.03125, 0.00000, 0.06250, 0.03125, -0.06250, 0.03125, 0.00000, 0.00000, -0.06250, 0.06250, 0.00000, 0.03125, -0.03125, 0.06250, 0.03125, -0.03125, 0.00000, 0.03125, 0.03125, 0.00000, 0.00000, 0.00000, 0.06250, 0.00000, -0.09375, 0.00000, 0.00000, 0.00000, 0.03125, -0.03125, 0.00000, -0.06250, -0.03125, -0.03125, -0.09375, 0.06250, -0.06250, -0.06250, 0.06250, -0.03125, 0.06250, -0.06250, -0.03125, -0.06250, 0.00000, 0.00000, -0.03125, 0.03125, 0.06250, 0.03125, 0.03125, 0.03125, 0.03125, 0.00000, -0.03125, -0.03125, 0.00000, -0.09375, 0.03125, 0.06250, 0.00000, 0.03125, 0.03125, 0.00000, 0.00000, 0.00000, 0.03125, 0.00000, 0.03125, 0.03125, 0.00000, -0.06250, -0.03125, -0.03125, 0.00000, -0.06250, 0.06250, 0.03125, 0.00000, -0.06250, 0.00000, -0.03125, -0.03125, 0.00000, 0.03125, -0.06250, 0.06250, -0.06250, 0.00000, 0.00000, -0.09375, 0.00000, -0.06250, 0.00000, 0.00000, 0.00000, 0.03125, 0.06250, -0.03125, 0.00000, 0.00000, -0.03125, -0.06250, -0.03125, 0.00000, -0.03125, -0.03125, -0.03125, 0.00000, -0.03125, 0.00000, 0.06250, -0.03125, 0.00000, 0.00000, 0.06250, 0.00000, 0.03125, -0.06250, -0.09375, -0.03125, -0.03125, 0.00000, -0.03125, -0.03125, -0.03125, -0.03125, 0.00000, -0.03125, 0.00000, 0.03125, 0.03125, -0.03125, 0.00000, 0.06250, -0.06250, 0.00000, -0.03125, -0.03125, 0.00000, -0.06250, 0.03125, 0.03125, 0.06250, -0.03125, 0.06250, 0.03125, -0.03125, 0.06250, -0.03125, -0.03125, 0.00000, 0.03125, 0.00000, 0.03125, -0.03125, -0.03125, 0.00000, -0.03125, 0.00000, 0.00000, -0.03125, -0.03125, 0.03125, 0.00000, -0.06250, -0.03125, 0.03125, 0.00000, -0.03125, 0.00000, 0.06250, 0.00000, 0.03125, -0.06250, 0.00000, 0.03125, -0.03125, 0.03125, -0.06250, -0.03125, -0.03125, 0.03125, 0.00000, 0.03125, -0.03125, 0.03125, -0.03125, 0.03125, -0.03125, -0.03125, 0.00000, 0.00000, 0.00000, 0.03125, 0.03125, 0.00000, 0.00000, -0.03125, 0.06250, 0.03125, -0.06250, 0.00000, -0.03125, 0.00000, 0.03125, 0.00000, -0.06250, 0.00000, 0.03125, 0.03125, 0.00000, -0.09375, 0.00000, -0.03125, -0.03125, 0.03125, 0.00000, 0.06250, -0.03125, 0.06250, 0.03125, 0.03125, -0.03125, 0.03125, 0.00000, -0.06250, 0.00000, -0.03125, 0.06250, -0.06250, 0.00000, -0.03125, 0.00000, 0.00000, 0.00000, 0.03125, 0.00000, -0.03125, 0.00000, 0.06250, 0.03125, 0.03125, -0.03125, 0.03125, -0.03125, 0.00000, 0.00000, 0.00000, 0.03125, 0.03125, -0.03125, 0.00000, -0.03125, -0.03125, 0.03125, 0.00000, -0.06250, 0.06250, -0.03125, 0.03125, 0.03125, -0.03125, -0.03125, 0.00000, -0.06250, -0.03125, 0.03125, 0.03125, 0.00000, 0.00000, 0.00000, -0.03125, -0.03125, -0.03125, -0.06250, 0.03125, 0.03125, 0.06250, -0.06250, -0.06250, 0.06250, -0.06250, 0.00000, -0.06250, 0.00000, 0.03125, -0.03125, -0.03125, 0.00000, 0.00000, 0.03125, 0.00000, 0.06250, 0.06250, 0.00000, 0.00000, 0.03125, 0.00000, 0.00000, -0.06250, 0.00000, 0.00000, 0.03125, 0.03125, -0.03125, 0.03125, 0.06250, -0.03125, 0.03125, -0.03125, -0.03125, -0.03125, -0.03125, -0.03125, 0.00000, 0.03125, -0.06250, 0.03125, -0.03125, -0.06250, -0.03125, 0.00000, -0.03125, -0.03125, 0.03125, 0.00000, 0.00000, 0.03125, -0.03125, -0.09375, 0.00000, 0.06250, 0.03125, 0.00000, -0.03125, 0.00000, 0.00000, 0.06250, 0.00000, 0.03125, -0.03125, 0.03125, 0.03125, -0.06250, -0.06250, 0.06250, 0.03125, 0.00000, -0.06250, 0.00000, -0.06250, 0.03125, -0.06250, 0.00000, 0.03125, 0.00000, -0.03125, -0.03125, 0.00000, 0.00000, -0.03125, -0.03125, -0.06250, 0.03125, 0.00000, -0.03125, 0.03125, -0.06250, 0.03125, -0.03125, 0.03125, 0.00000, -0.03125, -0.03125, 0.00000, -0.03125, 0.03125, 0.03125, -0.03125, 0.00000, 0.00000, 0.03125, 0.00000, 0.00000, -0.03125, -0.09375, 0.06250, -0.06250, 0.00000, 0.03125, -0.06250, -0.03125, 0.00000, 0.03125, 0.00000, -0.03125, -0.03125, -0.03125, -0.03125, 0.06250, -0.03125, 0.00000, 0.00000, 0.00000, 0.00000, 0.00000, 0.00000, -0.03125, 0.00000, -0.03125, -0.03125, 0.00000, -0.06250, -0.03125, -0.06250, -0.03125, -0.03125, -0.03125, 0.00000, -0.03125, 0.00000, 0.00000, 0.00000, -0.03125, 0.00000, 0.03125, -0.03125, 0.03125, -0.03125, -0.06250, 0.00000, -0.03125, -0.03125, -0.03125, 0.03125, 0.00000, 0.00000, 0.00000, -0.03125, -0.09375, 0.03125, 0.06250, 0.00000, 0.00000, 0.00000, 0.03125, -0.06250, 0.03125, -0.06250, 0.00000, 0.06250, 0.03125, 0.03125, 0.00000, -0.03125, -0.03125, 0.03125, 0.03125, -0.06250, -0.03125, 0.00000, 0.03125, 0.00000, -0.03125, 0.03125, -0.03125, 0.03125, -0.03125, 0.00000, -0.03125, 0.00000, 0.06250, 0.03125, 0.03125, -0.06250, 0.03125, -0.03125, 0.03125, 0.00000, 0.03125, -0.06250, -0.06250, -0.03125, 0.03125, -0.06250, -0.06250, -0.03125, 0.00000, -0.09375, 0.03125, 0.03125, 0.06250, 0.00000, 0.06250, 0.09375, -0.03125, 0.00000, 0.00000, 0.00000, 0.03125, -0.03125, 0.00000, -0.06250, -0.06250, -0.06250, 0.06250, 0.00000, -0.03125, 0.00000, -0.03125, -0.06250, 0.00000, -0.03125, 0.06250, -0.03125, 0.00000, 0.03125, 0.03125, 0.00000, 0.00000, 0.03125, 0.00000, -0.06250, 0.00000, -0.03125, 0.03125, 0.03125, 0.03125, -0.06250, 0.03125, -0.03125, 0.00000, 0.00000, -0.03125, -0.03125, 0.03125, -0.03125, 0.06250, 0.00000, 0.03125, 0.03125, -0.03125, 0.00000, 0.03125, -0.03125, 0.00000, 0.03125, 0.03125, -0.03125, -0.06250, 0.00000, 0.00000, -0.03125, 0.06250, -0.03125, 0.03125, -0.06250, 0.06250, -0.03125, 0.00000, 0.00000, 0.00000, -0.03125, -0.03125, 0.00000, 0.03125, -0.06250, 0.00000, 0.03125, 0.03125, -0.03125, 0.03125, -0.03125, -0.03125, 0.03125, -0.06250, -0.03125, 0.00000, -0.03125, -0.03125, -0.06250, 0.00000, 0.06250, 0.03125, 0.00000, -0.03125, -0.03125, 0.06250, -0.06250, 0.00000, 0.03125, 0.00000, 0.03125, 0.03125, 0.00000, -0.03125, 0.03125, 0.00000, -0.06250, 0.03125, 0.09375, -0.03125, 0.06250, 0.00000, 0.00000, 0.03125, -0.03125, -0.03125, 0.03125, -0.03125, 0.03125, -0.03125, -0.06250, 0.06250, 0.03125, -0.03125, 0.03125, 0.06250, -0.03125, 0.03125, -0.03125, 0.06250, 0.00000, 0.00000, -0.03125, 0.03125, 0.03125, -0.03125, 0.03125, 0.06250, -0.06250, -0.06250, 0.00000, 0.00000, 0.00000, 0.03125, -0.03125, 0.00000, -0.03125, 0.00000, 0.00000, 0.00000, 0.00000, -0.06250, 0.06250, 0.00000, 0.00000, 0.06250, -0.03125, 0.03125, -0.06250, 0.00000, 0.06250, -0.06250, 0.00000, 0.00000, 0.03125, -0.03125, 0.00000, 0.00000, -0.03125, 0.06250, 0.03125, -0.06250, -0.03125, -0.03125, -0.03125, 0.00000, -0.03125, 0.00000, 0.03125, 0.06250, -0.03125, 0.03125, 0.03125, 0.00000, 0.03125, -0.03125, 0.03125, 0.00000, 0.00000, -0.03125, 0.00000, -0.03125, 0.03125, -0.03125, 0.00000, 0.06250, 0.03125, -0.03125, 0.06250, 0.03125, 0.00000, 0.00000, 0.03125, 0.03125, -0.03125, 0.00000, 0.03125, 0.06250, 0.00000, -0.03125, 0.03125, 0.03125, 0.06250, 0.00000, 0.00000, -0.03125, 0.00000, 0.03125, -0.06250, -0.03125, -0.03125, -0.03125, -0.03125, -0.03125, -0.03125, 0.00000, 0.00000, -0.03125, 0.00000, -0.03125, 0.03125, -0.03125, -0.03125, -0.03125, -0.06250, -0.03125, 0.00000, 0.00000, 0.00000, 0.00000, -0.03125, 0.00000, -0.03125, 0.00000, 0.03125, -0.03125, 0.00000, -0.06250, 0.06250, -0.03125, -0.06250, 0.03125, -0.03125, 0.00000, 0.00000, 0.03125, 0.00000, 0.06250, -0.03125, 0.03125, -0.06250, 0.03125, 0.06250, 0.06250, 0.03125, 0.00000, 0.00000, -0.06250, 0.00000, 0.00000, 0.00000, -0.03125, -0.03125, 0.00000, 0.00000, 0.00000, -0.06250, -0.03125, 0.00000, 0.00000, 0.00000, 0.03125, 0.03125, 0.03125, -0.03125, 0.00000, 0.00000, 0.03125, 0.03125, 0.06250, 0.00000, -0.06250, 0.00000, -0.03125, 0.00000, -0.06250, 0.03125, 0.00000, 0.03125, 0.00000, 0.03125, 0.03125, -0.03125, 0.06250, -0.03125, -0.03125, 0.00000, 0.00000, -0.06250, -0.03125, -0.06250, 0.03125, -0.03125, 0.03125, 0.03125, -0.06250, -0.06250, -0.06250, 0.03125, 0.00000, 0.03125, 0.00000, 0.03125, -0.06250, -0.03125, 0.03125, 0.03125, 0.00000, 0.03125, 0.00000, -0.03125, -0.03125, -0.03125, 0.00000, 0.00000, 0.00000, -0.03125, 0.00000, 0.00000, -0.03125, 0.03125, -0.03125, -0.03125, -0.03125, -0.03125, 0.06250, 0.03125, -0.03125, -0.03125, 0.00000, -0.09375, -0.06250, -0.03125, -0.06250, -0.03125, -0.03125, 0.03125, 0.03125, -0.06250, -0.03125, 0.06250, 0.00000, -0.03125, 0.03125, -0.06250, 0.00000, -0.03125, -0.03125, 0.06250, 0.03125, 0.03125, 0.00000, 0.03125, -0.03125, 0.03125, -0.06250, 0.03125, 0.00000, -0.03125, -0.06250, 0.00000, 0.03125, -0.06250, 0.03125, -0.03125, -0.03125, -0.03125, 0.00000, 0.00000, 0.00000, 0.00000, 0.00000, 0.00000, -0.03125, 0.00000, 0.06250, 0.03125, 0.09375, 0.06250, 0.00000, -0.03125, -0.03125, 0.00000, 0.00000, -0.03125, 0.00000, 0.00000, -0.03125, 0.00000, 0.00000, -0.03125, 0.00000, -0.06250, -0.03125, 0.00000, 0.03125, -0.03125, -0.03125, 0.00000, 0.00000, 0.00000, 0.06250, 0.06250, 0.00000, -0.03125, 0.00000, 0.03125, -0.03125, -0.03125, 0.03125, 0.03125, -0.03125, 0.00000, 0.03125, 0.03125, -0.03125, -0.03125, 0.03125, 0.06250, 0.00000, 0.00000, 0.03125, -0.03125, 0.03125, 0.03125, -0.03125, -0.06250, 0.03125, 0.03125, -0.06250, 0.00000, 0.00000, 0.06250, -0.06250, -0.03125, -0.06250, 0.03125, 0.06250, -0.06250, 0.00000, -0.03125, 0.00000, -0.03125, 0.03125, -0.09375, 0.03125, -0.03125, 0.00000, 0.03125, 0.00000, 0.00000, 0.03125, 0.00000, -0.03125, -0.03125, 0.06250, 0.03125, 0.03125, -0.03125, 0.03125, 0.03125, -0.03125, -0.03125, 0.03125, -0.03125, 0.00000, 0.03125, 0.00000, 0.00000, 0.00000, -0.03125, -0.03125, 0.00000, 0.03125, 0.03125, 0.00000, -0.03125, 0.03125, -0.03125, -0.03125, 0.03125, 0.03125, 0.00000, 0.03125, -0.03125, 0.00000, 0.03125, 0.00000, 0.03125, 0.00000, -0.06250, 0.03125, 0.03125, 0.06250, 0.00000, 0.00000, 0.00000, 0.03125, 0.06250, -0.03125, 0.03125, 0.00000, 0.00000, 0.00000, 0.03125, 0.03125, -0.03125, -0.03125, 0.00000, 0.00000, -0.06250, 0.03125, 0.03125, -0.03125, -0.03125, 0.03125, 0.03125, 0.00000, 0.00000, -0.03125, 0.06250, -0.03125, 0.00000, -0.03125, 0.00000, -0.03125, -0.03125, 0.03125, 0.03125, 0.03125, 0.00000, -0.03125, 0.03125, 0.06250, 0.00000, -0.03125, 0.00000, 0.03125, 0.03125, -0.06250, 0.00000, 0.06250, 0.00000, -0.06250, 0.00000, 0.00000, -0.03125, -0.06250, 0.03125, -0.03125, 0.00000, 0.00000, 0.00000, 0.00000, -0.03125, 0.00000, 0.03125, 0.03125, 0.00000, -0.03125, -0.06250, 0.06250, -0.03125, 0.03125, 0.03125, 0.00000, 0.00000, 0.00000, -0.03125, 0.06250, -0.06250, 0.03125, 0.00000, -0.03125, 0.00000, 0.00000, 0.00000, -0.06250, 0.03125, -0.03125, 0.06250, -0.03125, 0.00000, 0.03125, 0.00000, 0.00000, -0.06250, 0.03125, -0.06250, 0.00000, -0.03125, 0.00000, 0.03125, 0.03125, 0.00000, -0.03125, 0.00000, 0.00000, -0.03125, 0.06250, 0.00000, -0.06250, 0.03125, 0.03125, 0.00000, -0.03125, 0.03125, -0.06250, -0.03125, -0.03125, 0.00000, 0.00000, 0.00000, -0.03125, 0.00000, -0.03125, 0.00000, 0.06250, 0.00000, -0.03125, -0.03125, 0.00000, 0.00000, 0.00000, -0.06250, -0.03125, -0.06250, 0.06250, 0.03125, 0.03125, 0.03125, -0.06250, 0.00000, 0.00000, -0.06250, 0.00000, 0.03125, 0.00000, -0.06250, -0.03125, 0.03125, -0.06250, 0.06250, 0.03125, 0.00000, 0.03125, 0.00000, 0.06250, 0.03125, 0.00000, -0.06250, 0.03125, 0.00000, -0.03125, 0.03125, -0.06250, -0.06250, -0.03125, -0.03125, 0.00000, 0.03125, -0.06250, 0.00000, -0.03125, -0.06250, 0.00000, 0.00000, 0.06250, 0.03125, 0.00000, 0.00000, -0.03125, -0.03125, -0.06250, 0.06250, 0.03125, 0.00000, -0.03125, 0.00000, 0.00000, -0.03125, 0.03125, -0.03125, 0.00000, 0.00000, 0.03125, 0.00000, -0.06250, 0.00000, -0.03125, -0.03125, 0.00000, -0.03125, -0.06250, 0.03125, 0.03125, 0.00000, -0.03125, 0.00000, -0.06250, -0.03125, -0.03125, 0.00000, -0.03125, 0.00000, -0.03125, 0.03125, 0.03125, 0.03125, 0.00000, -0.06250, -0.03125, 0.00000, -0.06250, 0.00000, 0.03125, -0.03125, -0.03125, 0.03125, -0.03125, 0.03125, -0.03125, 0.00000, 0.00000, 0.00000, 0.03125, -0.03125, 0.06250, 0.00000, 0.00000, 0.03125, 0.03125, -0.03125, 0.00000, -0.03125, 0.03125, 0.00000, 0.00000, 0.00000, 0.06250, 0.03125, -0.03125, -0.03125, 0.00000, 0.00000, 0.00000, 0.03125, 0.06250, 0.03125, 0.03125, 0.00000, 0.00000, 0.03125, -0.03125, 0.00000, 0.03125, 0.00000, 0.00000, -0.06250, 0.00000, 0.00000, 0.00000, 0.00000, -0.03125, 0.03125, -0.03125, 0.06250, 0.03125, 0.09375, 0.03125, -0.03125, 0.03125, 0.03125, 0.00000, -0.03125, -0.03125, 0.06250, 0.00000, -0.09375, -0.03125, -0.03125, 0.06250, -0.06250, 0.03125, 0.06250, 0.00000, 0.06250, -0.06250, 0.00000, 0.03125, 0.00000, 0.03125, 0.03125, -0.03125, 0.03125, 0.00000, 0.00000, 0.00000, -0.03125, -0.03125, -0.03125, 0.00000, 0.03125, 0.00000, 0.06250, -0.03125, -0.03125, -0.03125, 0.00000, -0.03125, 0.00000, 0.03125, 0.06250, 0.03125, 0.03125, -0.03125, -0.03125, 0.00000, 0.00000, 0.00000, -0.03125, 0.03125, 0.06250, 0.03125, -0.03125, 0.00000, 0.06250, 0.00000, 0.06250, -0.03125, 0.03125, 0.00000, -0.03125, 0.03125, 0.03125, 0.03125, -0.06250, -0.06250, 0.00000, 0.00000, 0.03125, -0.03125, 0.00000, 0.00000, -0.03125, 0.06250, 0.00000, 0.00000, 0.00000, 0.06250, 0.03125, 0.00000, 0.06250, 0.03125, 0.00000, 0.03125, 0.03125, 0.03125, 0.03125, -0.06250, 0.00000, -0.06250, 0.00000, 0.00000, 0.00000, -0.03125, -0.06250, -0.06250, 0.00000, 0.00000, 0.06250, 0.00000, 0.00000, 0.03125, -0.06250, 0.00000, 0.00000, 0.03125, 0.00000, -0.03125, 0.00000, 0.03125, 0.00000, 0.00000, 0.00000, 0.06250, -0.03125, 0.06250, 0.00000, 0.03125, -0.06250, 0.03125, 0.00000, 0.00000, 0.03125, 0.06250, 0.03125, 0.00000, 0.00000, 0.00000, 0.00000, 0.00000, -0.03125, 0.03125, 0.00000, -0.03125, -0.06250, -0.03125, 0.00000, 0.00000, 0.00000, -0.03125, 0.03125, 0.00000, 0.03125, 0.03125, 0.00000, 0.00000, -0.03125, 0.03125, -0.03125, 0.00000, -0.03125, 0.00000, 0.03125, 0.00000, 0.00000, 0.03125, 0.00000, 0.06250, -0.03125, 0.06250, 0.00000, -0.03125, -0.06250, 0.00000, 0.00000, -0.03125, -0.03125, 0.03125, 0.03125, -0.06250, 0.00000, -0.06250, -0.03125, 0.03125, -0.06250, 0.00000, -0.03125, 0.03125, 0.03125, 0.00000, 0.00000, 0.06250, 0.00000, 0.00000, -0.03125, 0.00000, 0.00000, 0.00000, -0.03125, 0.00000, -0.03125, 0.03125, 0.00000, 0.06250, 0.00000, 0.03125, 0.00000, -0.03125, 0.00000, -0.06250, 0.03125, -0.03125, 0.00000, 0.06250, -0.03125, -0.06250, 0.00000, 0.03125, 0.03125, -0.06250, -0.06250, 0.06250, -0.03125, 0.03125, -0.03125, -0.03125, 0.03125, -0.03125, -0.03125, 0.00000, -0.03125, 0.06250, 0.00000, 0.03125, 0.00000, 0.03125, -0.03125, -0.03125, 0.03125, -0.03125, 0.03125, -0.03125, 0.03125, 0.06250, 0.00000, -0.03125, 0.03125, 0.00000, 0.00000, 0.03125, -0.03125, -0.03125, 0.03125, 0.03125, 0.00000, -0.03125, 0.06250, 0.00000, 0.06250, -0.06250, 0.00000, -0.03125, 0.03125, 0.03125, 0.03125, 0.00000, 0.00000, 0.00000, 0.00000, 0.03125, 0.00000, 0.00000, -0.03125, 0.03125, 0.00000, 0.00000, 0.09375, -0.03125, 0.03125, -0.06250, 0.00000, 0.03125, 0.00000, 0.03125, 0.03125, 0.03125, 0.00000, -0.03125, 0.03125, 0.00000, 0.00000, 0.00000, 0.00000, 0.00000, 0.00000, 0.00000, 0.00000, 0.03125, -0.06250, -0.06250, 0.03125, 0.03125, -0.06250, 0.03125, -0.03125, -0.03125, -0.03125, -0.03125, -0.03125, 0.03125, 0.00000, -0.06250, -0.03125, -0.06250, 0.00000, 0.06250, -0.06250, -0.06250, -0.06250, 0.00000, 0.00000, -0.03125, 0.00000, 0.03125, -0.03125, 0.06250, -0.06250, -0.03125, -0.03125, -0.06250, 0.00000, 0.03125, 0.03125, -0.06250, -0.03125, 0.03125, -0.03125, 0.00000, -0.03125, 0.03125, 0.03125, 0.06250, 0.03125, -0.06250, 0.00000, -0.03125, 0.00000, 0.00000, 0.00000, 0.00000, 0.06250, -0.06250, 0.06250, -0.03125, 0.03125, 0.00000, -0.03125, 0.00000, 0.00000, 0.00000, 0.00000, -0.03125, 0.00000, -0.03125, 0.03125, -0.03125, -0.03125, -0.03125, 0.03125, 0.00000, 0.03125, -0.06250, -0.03125, 0.00000, 0.00000, -0.03125, 0.00000, 0.03125, -0.03125, -0.03125, -0.03125, 0.00000, 0.06250, 0.03125, 0.03125, 0.00000, 0.00000, 0.00000, -0.06250, 0.03125, 0.03125, 0.03125, -0.03125, -0.06250, 0.00000, 0.00000, 0.00000, -0.03125, 0.06250, 0.00000, -0.03125, -0.03125, 0.00000, 0.00000, 0.00000, -0.03125, 0.06250, 0.03125, 0.03125, -0.03125, 0.00000, 0.00000, 0.03125, 0.03125, 0.00000, 0.00000, 0.00000, -0.03125, -0.06250, -0.03125, 0.00000, 0.06250, 0.03125, 0.03125, 0.00000, 0.00000, 0.03125, -0.09375, 0.03125, 0.00000, -0.03125, 0.00000, 0.00000, 0.00000, 0.00000, 0.00000, 0.00000, -0.03125, 0.00000, 0.00000, 0.03125, 0.03125, 0.00000, 0.00000, 0.03125, 0.00000, 0.06250, 0.06250, 0.00000, 0.00000, -0.03125, 0.03125, -0.03125, 0.00000, -0.03125, -0.06250, -0.03125, 0.00000, 0.03125, 0.00000, 0.00000, 0.00000, 0.03125, 0.00000, -0.03125, 0.00000, -0.03125, 0.00000, 0.03125, 0.00000, 0.00000, 0.00000, 0.00000, -0.03125, 0.06250, -0.03125, 0.00000, 0.00000, -0.06250, 0.00000, -0.06250, 0.03125, -0.03125, -0.03125, -0.03125, 0.03125, 0.03125, 0.00000, -0.03125, -0.03125, 0.03125, 0.03125, 0.00000, 0.03125, 0.00000, 0.00000, -0.03125, 0.00000, 0.00000, 0.03125, 0.00000, -0.06250, 0.00000, -0.03125, 0.00000, 0.03125, -0.03125, 0.00000, -0.03125, 0.00000, -0.03125, 0.00000, -0.03125, 0.00000, 0.03125, 0.00000, -0.06250, 0.00000, -0.03125, 0.00000, 0.00000, 0.00000, 0.06250, 0.03125, 0.00000, -0.03125, 0.00000, 0.03125, 0.00000, 0.03125, 0.00000, -0.06250, -0.03125, 0.03125, 0.00000, 0.03125, 0.06250, 0.00000, 0.03125, -0.03125, -0.03125, 0.03125, -0.03125, 0.03125, 0.00000, 0.00000, 0.00000, -0.03125, -0.03125, -0.03125, 0.00000, -0.06250, 0.00000, 0.00000, 0.06250, 0.06250, -0.03125, 0.03125, 0.00000, 0.00000, 0.00000, 0.03125, 0.00000, 0.03125, -0.06250, 0.06250, 0.06250, 0.06250, 0.00000, -0.03125, -0.03125, -0.06250, 0.03125, 0.00000, 0.06250, 0.00000, -0.03125, -0.03125, -0.03125, 0.03125, 0.00000, 0.03125, -0.03125, -0.03125, 0.03125, -0.06250, -0.03125, 0.00000, -0.06250, 0.03125, 0.03125, 0.00000, 0.00000, -0.03125, 0.00000, 0.03125, 0.03125, 0.00000, 0.00000, -0.03125, -0.03125, 0.00000, -0.03125, -0.03125, 0.03125, 0.00000, 0.03125, 0.00000, 0.00000, -0.03125, -0.06250, -0.03125, 0.00000, 0.06250, 0.00000, 0.03125, -0.06250, 0.00000, 0.00000, 0.00000, 0.03125, 0.03125, -0.06250, 0.00000, 0.00000, -0.03125, -0.03125, -0.03125, 0.03125, 0.03125, 0.03125, 0.00000, 0.06250, 0.03125, -0.03125, -0.03125, 0.03125, 0.03125, 0.00000, 0.03125, -0.03125, 0.00000, -0.03125, -0.03125, 0.03125, 0.00000, 0.00000, 0.00000, -0.03125, 0.06250, -0.03125, 0.00000, 0.00000, -0.06250, 0.00000, 0.06250, -0.03125, 0.03125, 0.00000, 0.00000, 0.03125, 0.06250, 0.00000, 0.00000, 0.00000, -0.03125, -0.03125, 0.06250, 0.03125, 0.06250, 0.00000, -0.03125, 0.03125, -0.03125, 0.00000, 0.03125, -0.09375, -0.03125, 0.00000, 0.00000, 0.03125, -0.03125, 0.00000, -0.03125, -0.06250, 0.00000, 0.00000, 0.03125, 0.03125, 0.00000, 0.00000, 0.00000, 0.06250, 0.00000, -0.03125, 0.00000, -0.03125, 0.03125, 0.03125, -0.03125, -0.03125, 0.03125, -0.06250, -0.06250, 0.00000, 0.03125, -0.03125, -0.03125, -0.06250, 0.03125, 0.00000, 0.03125, 0.03125, -0.06250, 0.00000, 0.00000, 0.03125, -0.03125, -0.03125, 0.00000, 0.03125, 0.00000, -0.03125, 0.03125, 0.03125, -0.03125, 0.00000, 0.00000, 0.03125, 0.03125, -0.03125, 0.00000, 0.00000, -0.03125, 0.03125, -0.03125, 0.03125, 0.00000, 0.00000, 0.03125, -0.06250, 0.03125, 0.03125, -0.03125, -0.03125, 0.00000, 0.03125, -0.03125, 0.06250, -0.06250, -0.06250, 0.03125, -0.03125, 0.00000, -0.06250, 0.03125, -0.03125, 0.03125, 0.00000, -0.03125, 0.03125, 0.00000, -0.03125, 0.00000, 0.00000, -0.03125, 0.06250, 0.00000, 0.00000, 0.00000, 0.00000, -0.03125, 0.00000, 0.00000, -0.03125, -0.03125, -0.03125, -0.06250, 0.00000, -0.06250, -0.03125, 0.06250, -0.03125, 0.03125, 0.00000, 0.00000, -0.06250, 0.03125, -0.03125, 0.00000, 0.03125, -0.03125, 0.03125, -0.03125, -0.03125, -0.06250, 0.06250, 0.03125, 0.03125, 0.03125, 0.00000, -0.03125, 0.03125, -0.06250, 0.00000, 0.06250, -0.03125, 0.00000, 0.00000, -0.06250, 0.00000, -0.03125, 0.00000, 0.03125, 0.00000, -0.06250, 0.03125, 0.00000, -0.03125, 0.00000, 0.00000, -0.03125, 0.00000, -0.03125, -0.03125, 0.03125, 0.00000, 0.00000, -0.06250, 0.06250, 0.00000, -0.03125, 0.03125, 0.00000, 0.00000, 0.00000, -0.03125, -0.06250, 0.03125, 0.03125, 0.00000, 0.06250, 0.00000, 0.00000, 0.03125, 0.03125, -0.06250, -0.03125, 0.03125, -0.03125, 0.03125, 0.00000, 0.03125, 0.00000, -0.03125, -0.03125, -0.03125, -0.03125, 0.06250, 0.06250, 0.00000, 0.03125, -0.03125, 0.06250, -0.03125, 0.03125, 0.06250, -0.06250, -0.03125, 0.00000, -0.03125, 0.00000, 0.00000, -0.03125, 0.00000, 0.03125, 0.00000, 0.03125, 0.09375, -0.06250, -0.06250, -0.03125, 0.06250, -0.03125, -0.03125, -0.03125, 0.00000, 0.00000, -0.03125, 0.00000, 0.03125, 0.03125, 0.03125, 0.00000, -0.03125, 0.03125, 0.03125, 0.00000, 0.03125, -0.06250, -0.03125, 0.03125, -0.06250, 0.00000, 0.00000, 0.00000, 0.03125, 0.03125, 0.06250, -0.03125, 0.00000, 0.06250, 0.03125, 0.06250, 0.03125, 0.00000, 0.00000, -0.03125, -0.03125, 0.00000, -0.03125, 0.00000, 0.00000, 0.00000, 0.03125, 0.00000, 0.06250, 0.00000, 0.00000, 0.03125, 0.03125, -0.03125, 0.03125, 0.03125, -0.06250, -0.03125, -0.03125, 0.00000, 0.03125, -0.06250, 0.00000, 0.00000, 0.03125, -0.03125, -0.03125, -0.06250, -0.06250, 0.03125, 0.00000, -0.03125, 0.06250, -0.03125, -0.03125, -0.03125, -0.06250, 0.00000, 0.00000, 0.03125, 0.00000, -0.03125, 0.00000, -0.03125, 0.03125, 0.06250, 0.00000, 0.03125, 0.03125, 0.00000, 0.00000, 0.00000, 0.00000, -0.03125, 0.00000, 0.00000, 0.03125, 0.00000, 0.00000, -0.03125, 0.00000, 0.00000, 0.06250, 0.03125, -0.06250, -0.06250, -0.06250, -0.06250, -0.06250, -0.06250, 0.00000, 0.03125, -0.06250, 0.03125, -0.03125, -0.06250, -0.06250, 0.00000, -0.06250, 0.00000, -0.03125, -0.06250, -0.03125, 0.00000, -0.06250, 0.00000, -0.03125, 0.03125, 0.00000, 0.00000, -0.03125, 0.00000, -0.06250, 0.00000, 0.00000, 0.06250, -0.06250, 0.03125, 0.06250, 0.00000, 0.00000, 0.00000, 0.03125, -0.06250, 0.03125, -0.03125, -0.06250, -0.03125, 0.03125, 0.03125, 0.00000, -0.06250, 0.03125, 0.00000, 0.00000, -0.06250, -0.03125, 0.00000, -0.06250, 0.00000, 0.00000, 0.00000, 0.00000, 0.03125, -0.03125, 0.06250, -0.06250, 0.06250, 0.00000, 0.03125, 0.06250, 0.03125, 0.00000, 0.03125, -0.03125, 0.03125, 0.00000, 0.00000, -0.03125, -0.03125, -0.06250, -0.03125, -0.03125, 0.03125, 0.00000, -0.03125, 0.03125, 0.00000, -0.03125, -0.09375, 0.03125, -0.03125, -0.03125, -0.03125, -0.03125, -0.03125, 0.00000, -0.06250, -0.03125, 0.03125, 0.00000, -0.03125, 0.03125, 0.00000, -0.03125, -0.03125, 0.00000, -0.06250, 0.03125, 0.03125, -0.03125, 0.03125, 0.00000, 0.03125, -0.03125, 0.03125, -0.06250, -0.06250, 0.00000, -0.06250, 0.03125, -0.06250, 0.00000, 0.00000, 0.00000, 0.00000, -0.03125, 0.00000, -0.06250, -0.03125, 0.03125, 0.06250, 0.00000, 0.06250, -0.03125, 0.00000, 0.00000, 0.00000, -0.06250, -0.03125, -0.03125, 0.09375, 0.03125, 0.03125, 0.00000, -0.03125, 0.00000, -0.03125, -0.09375, 0.00000, 0.06250, -0.03125, 0.03125, 0.06250, 0.03125, 0.06250, -0.03125, 0.03125, -0.03125, 0.00000, 0.03125, -0.03125, -0.03125, 0.03125, 0.03125, 0.03125, 0.00000, 0.06250, -0.06250, 0.03125, 0.03125, 0.00000, -0.03125, 0.00000, -0.03125, -0.03125, 0.03125, 0.03125, 0.00000, -0.06250, 0.06250, 0.00000, 0.03125, 0.03125, -0.03125, -0.03125, 0.03125, 0.00000, 0.03125, 0.00000, 0.03125, -0.06250, 0.06250, 0.03125, 0.06250, -0.03125, 0.00000, -0.03125, -0.03125, 0.03125, 0.00000, 0.03125, 0.00000, 0.03125, -0.06250, 0.03125, -0.06250, -0.03125, 0.06250, -0.03125, -0.03125, 0.00000, -0.06250, -0.03125, 0.00000, -0.03125, -0.03125, 0.03125, 0.03125, 0.06250, 0.03125, 0.03125, 0.00000, -0.03125, 0.03125, -0.03125, 0.03125, 0.06250, -0.03125, 0.03125, -0.03125, -0.06250, -0.03125, -0.03125, 0.03125, 0.00000, 0.03125, -0.06250, 0.06250, -0.03125, -0.03125, -0.03125, 0.00000, 0.00000, 0.00000, -0.03125, 0.00000, 0.00000, 0.03125, -0.03125, 0.06250, -0.03125, 0.03125, 0.06250, -0.03125, 0.06250, -0.06250, 0.06250, -0.03125, 0.00000, 0.06250, -0.09375, 0.00000, 0.03125, 0.00000, 0.06250, 0.00000, -0.03125, -0.03125, -0.06250, -0.03125, 0.03125, 0.00000, -0.06250, 0.00000, 0.03125, 0.03125, -0.09375, 0.03125, 0.00000, -0.03125, 0.03125, 0.00000, -0.06250, 0.00000, 0.00000, 0.00000, -0.03125, 0.03125, 0.06250, 0.00000, 0.03125, -0.03125, 0.03125, 0.03125, -0.03125, 0.00000, 0.00000, -0.03125, 0.00000, 0.03125, 0.06250, -0.03125, 0.00000, 0.00000, -0.03125, 0.00000, 0.00000, 0.03125, 0.00000, -0.06250, -0.03125, 0.03125, 0.00000, 0.03125, -0.03125, 0.00000, -0.09375, -0.03125, -0.06250, -0.03125, -0.03125, 0.00000, 0.03125, 0.00000, 0.03125, 0.03125, 0.06250, -0.06250, 0.00000, 0.03125, 0.00000, -0.03125, 0.06250, -0.03125, 0.03125, -0.03125, 0.03125, -0.06250, -0.06250, 0.03125, -0.03125, 0.06250, 0.03125, -0.03125, -0.03125, -0.03125, 0.00000, 0.03125, 0.03125, 0.06250, 0.00000, -0.03125, -0.06250, -0.03125, 0.03125, 0.00000, -0.03125, 0.03125, 0.06250, 0.00000, 0.00000, 0.00000, 0.03125, -0.03125, -0.06250, 0.03125, 0.00000, 0.06250, 0.03125, 0.03125, 0.00000, 0.03125, -0.03125, -0.03125, 0.00000, 0.03125, 0.06250, -0.03125, -0.03125, 0.03125, 0.00000, -0.06250, 0.00000, 0.00000, -0.03125, 0.03125, 0.00000, 0.03125, 0.03125, -0.03125, 0.06250, -0.03125, 0.03125, -0.03125, -0.03125, 0.06250, 0.00000, 0.00000, -0.03125, 0.00000, 0.03125, 0.00000, 0.00000, -0.03125, -0.03125, 0.03125, -0.06250, 0.00000, -0.03125, -0.03125, 0.00000, -0.09375, -0.03125, -0.03125, 0.03125, 0.00000, 0.03125, -0.03125, 0.03125, 0.03125, -0.03125, 0.03125, -0.03125, 0.03125, 0.00000, 0.00000, 0.03125, 0.06250, -0.03125, 0.00000, -0.03125, 0.00000, 0.00000, 0.00000, -0.03125, -0.03125, 0.00000, 0.03125, -0.03125, -0.06250, -0.03125, 0.00000, 0.00000, -0.03125, -0.03125, -0.06250, -0.09375, 0.06250, 0.00000, 0.00000, 0.00000, 0.09375, 0.00000, -0.03125, -0.03125, -0.06250, -0.03125, 0.03125, 0.09375, 0.00000, 0.03125, 0.00000, -0.03125, 0.03125, -0.06250, 0.06250, 0.00000, 0.00000, 0.00000, -0.03125, -0.03125, -0.03125, 0.03125, -0.03125, 0.00000, -0.03125, 0.03125, 0.06250, -0.03125, 0.03125, -0.03125, 0.03125, -0.03125, 0.00000, 0.03125, 0.03125, -0.03125, 0.00000, -0.03125, 0.00000, 0.00000, 0.03125, 0.06250, 0.03125, -0.03125, 0.06250, 0.00000, 0.00000, -0.03125, 0.03125, -0.03125, -0.09375, 0.03125, -0.03125, -0.06250, -0.06250, 0.06250, 0.03125, 0.00000, 0.03125, -0.03125, 0.00000, -0.03125, -0.06250, 0.00000, -0.03125, -0.06250, -0.03125, 0.00000, -0.03125, -0.03125, 0.03125, 0.06250, 0.00000, 0.03125, -0.03125, -0.03125, 0.06250, 0.03125, -0.03125, 0.00000, 0.00000, 0.00000, 0.00000, -0.06250, 0.03125, 0.00000, 0.00000, -0.03125, 0.03125, 0.03125, -0.03125, 0.00000, 0.00000, 0.03125, -0.09375, 0.03125, 0.00000, 0.00000, 0.00000, 0.03125, 0.00000, -0.03125, 0.06250, 0.03125, 0.00000, 0.03125, 0.03125, 0.00000, 0.00000, 0.00000, 0.00000, -0.03125, 0.03125, 0.06250, 0.00000, 0.00000, -0.03125, -0.03125, -0.03125, 0.00000, 0.03125, -0.03125, -0.03125, 0.00000, 0.03125, 0.00000, 0.00000, 0.00000, -0.03125, 0.00000, -0.09375, -0.06250, -0.03125, 0.00000, 0.03125, -0.03125, 0.00000, -0.06250, 0.00000, -0.03125, 0.03125, 0.00000, -0.06250, -0.03125, -0.09375, -0.06250, 0.06250, 0.00000, -0.06250, -0.03125, 0.06250, -0.03125, 0.00000, -0.06250, -0.06250, -0.06250, 0.03125, 0.00000, -0.03125, 0.03125, 0.00000, 0.00000, 0.06250, 0.00000, -0.03125, 0.00000, -0.03125, -0.03125, -0.03125, 0.00000, 0.00000, -0.03125, -0.03125, 0.03125, 0.00000, 0.03125, 0.06250, 0.00000, -0.03125, 0.00000, -0.03125, -0.06250, 0.03125, 0.00000, 0.03125, -0.06250, -0.06250, -0.03125, 0.06250, 0.03125, -0.03125, 0.03125, 0.06250, 0.00000, -0.03125, -0.03125, 0.00000, -0.03125, 0.03125, 0.00000, -0.06250, 0.06250, 0.03125, -0.03125, 0.00000, 0.00000, 0.00000, 0.00000, 0.03125, -0.03125, 0.03125, -0.03125, 0.00000, 0.00000, -0.03125, 0.03125, -0.03125, 0.00000, 0.00000, -0.06250, 0.03125, -0.06250, -0.03125, 0.03125, -0.03125, 0.00000, 0.03125, 0.09375, -0.06250, 0.00000, -0.03125, 0.00000, 0.03125, 0.00000, 0.03125, 0.03125, 0.06250, 0.03125, 0.00000, 0.00000, 0.00000, 0.00000, 0.06250, 0.03125, -0.03125, -0.03125, -0.03125, -0.03125, 0.00000, 0.00000, -0.06250, 0.00000, -0.03125, -0.09375, 0.03125, 0.03125, 0.06250, -0.03125, -0.03125, 0.03125, 0.00000, 0.00000, -0.03125, -0.03125, 0.00000, 0.00000, 0.03125, -0.03125, 0.00000, 0.00000, 0.03125, -0.06250, 0.03125, 0.03125, -0.03125, 0.00000, 0.00000, 0.00000, 0.06250, 0.00000, -0.06250, 0.00000, -0.03125, 0.00000, 0.03125, 0.03125, 0.00000, -0.03125, 0.03125, -0.03125, 0.03125, -0.03125, 0.03125, -0.06250, 0.00000, 0.00000, 0.06250, 0.00000, -0.03125, -0.03125, -0.03125, 0.00000, 0.00000, 0.00000, 0.00000, 0.03125, 0.03125, 0.00000, -0.03125, 0.00000, 0.03125, 0.00000, -0.03125, -0.03125, 0.06250, 0.00000, 0.03125, 0.00000, 0.00000, -0.03125, 0.00000, -0.03125, -0.03125, -0.03125, 0.00000, -0.06250, 0.06250, 0.00000, 0.00000, -0.06250, 0.00000, 0.03125, 0.03125, -0.06250, 0.00000, -0.03125, 0.03125, -0.06250, 0.03125, -0.06250, 0.00000, 0.03125, -0.06250, 0.09375, -0.03125, 0.00000, 0.00000, -0.03125, -0.03125, 0.06250, -0.03125, -0.03125, 0.00000, 0.06250, 0.03125, 0.03125, -0.03125, -0.03125, 0.00000, -0.06250, 0.00000, 0.00000, 0.00000, -0.03125, 0.00000, 0.03125, 0.03125, -0.06250, 0.00000, 0.03125, 0.00000, 0.06250, -0.03125, 0.00000, 0.00000, 0.00000, 0.06250, 0.00000, 0.00000, 0.06250, 0.03125, 0.06250, -0.03125, 0.06250, -0.03125, 0.06250, 0.00000, 0.03125, 0.00000, -0.06250, 0.03125, 0.06250, -0.03125, 0.03125, 0.03125, 0.00000, 0.00000, 0.03125, 0.03125, -0.03125, 0.00000, 0.00000, 0.03125, 0.00000, 0.09375, 0.03125, 0.00000, 0.00000, 0.06250, -0.03125, 0.00000, 0.00000, -0.03125, -0.06250, 0.00000, 0.03125, 0.00000, 0.03125, 0.00000, -0.03125, -0.03125, -0.03125, 0.03125, 0.00000, 0.00000, 0.06250, 0.00000, -0.03125, -0.06250, 0.06250, -0.06250, 0.03125, 0.00000, -0.03125, 0.03125, 0.00000, 0.00000, 0.03125, 0.00000, 0.00000, -0.03125, 0.00000, 0.03125, 0.03125, 0.03125, 0.00000, -0.03125, 0.09375, 0.00000, 0.00000, -0.03125, -0.03125, -0.03125, 0.00000, 0.03125, 0.03125, 0.03125, 0.03125, 0.03125, 0.00000, 0.00000, 0.00000, 0.00000, -0.03125, -0.06250, 0.00000, 0.03125, 0.06250, -0.03125, 0.00000, 0.03125, -0.03125, -0.03125, 0.00000, 0.03125, 0.03125, -0.03125, 0.06250, 0.00000, 0.03125, -0.03125, -0.03125, 0.06250, -0.03125, 0.03125, 0.00000, 0.00000, 0.00000, 0.00000, 0.00000, 0.00000, 0.03125, -0.09375, 0.06250, -0.03125, -0.03125, 0.00000, 0.03125, 0.00000, 0.00000, -0.03125, -0.03125, 0.03125, 0.03125, 0.00000, -0.06250, 0.03125, -0.06250, -0.03125, 0.00000, 0.00000, 0.00000, 0.06250, 0.00000, 0.06250, 0.03125, 0.00000, 0.03125, 0.06250, -0.09375, -0.03125, 0.03125, -0.06250, 0.00000, -0.06250, 0.00000, 0.00000, 0.03125, 0.00000, 0.00000, 0.03125, -0.03125, -0.03125, 0.00000, -0.03125, 0.00000, 0.00000, 0.00000, 0.00000, -0.03125, 0.06250, 0.03125, -0.03125, -0.03125, 0.00000, -0.03125, 0.03125, 0.00000, 0.00000, 0.00000, -0.06250, 0.00000, 0.00000, 0.03125, 0.03125, 0.03125, -0.03125, 0.00000, -0.06250, 0.00000, 0.06250, 0.03125, 0.00000, -0.03125, 0.06250, 0.00000, 0.03125, -0.03125, 0.06250, 0.00000, -0.03125, 0.00000, 0.00000, -0.03125, -0.03125, -0.03125, -0.03125, -0.06250, 0.03125, -0.03125, -0.06250, 0.00000, 0.03125, -0.06250, 0.03125, -0.03125, 0.00000, 0.03125, -0.03125, -0.03125, -0.03125, -0.03125, 0.03125, -0.03125, -0.03125, 0.00000, 0.03125, 0.00000, -0.03125, 0.03125, -0.03125, 0.03125, 0.00000, 0.03125, 0.00000, 0.03125, 0.00000, 0.00000, 0.00000, 0.00000, 0.03125, 0.03125, -0.06250, 0.03125, -0.03125, -0.03125, 0.06250, -0.03125, 0.00000, 0.03125, 0.03125, 0.03125, -0.03125, 0.00000, -0.03125, -0.03125, 0.00000, -0.03125, 0.00000, 0.03125, 0.00000, 0.00000, 0.03125, 0.00000, 0.00000, 0.03125, 0.06250, 0.06250, -0.06250, 0.00000, 0.03125, -0.09375, -0.03125, 0.03125, 0.03125, 0.00000, 0.00000, 0.06250, 0.03125, -0.03125, 0.00000, -0.03125, 0.03125, -0.03125, 0.06250, -0.06250, -0.03125, -0.03125, -0.03125, 0.00000, 0.00000, 0.00000, 0.03125, 0.03125, -0.09375, 0.00000, 0.03125, 0.00000, -0.06250, -0.06250, -0.06250, 0.00000, 0.03125, 0.03125, -0.03125, 0.03125, 0.00000, 0.03125, 0.00000, -0.03125, 0.00000, -0.03125, 0.00000, 0.00000, 0.03125, -0.03125, -0.03125, 0.00000, -0.03125, -0.03125, -0.06250, -0.03125, 0.00000, -0.06250, -0.03125, 0.03125, -0.03125, -0.03125, 0.03125, 0.00000, -0.06250, 0.03125, 0.00000, -0.06250, -0.03125, 0.03125, 0.00000, 0.00000, 0.09375, 0.00000, 0.00000, 0.06250, 0.00000, 0.00000, 0.00000, 0.00000, 0.06250, 0.00000, 0.00000, 0.00000, -0.06250, 0.03125, 0.00000, -0.06250, 0.00000, -0.03125, 0.00000, 0.00000, 0.00000, 0.00000, 0.06250, 0.00000, 0.00000, 0.00000, 0.03125, 0.03125, -0.03125, -0.03125, 0.03125, 0.00000, 0.00000, 0.03125, -0.03125, 0.00000, 0.00000, 0.00000, 0.06250, 0.00000, 0.03125, 0.00000, 0.00000, 0.06250, 0.00000, -0.03125, -0.03125, 0.03125, -0.03125, 0.00000, 0.06250, -0.03125, -0.03125, 0.00000, 0.00000, -0.03125, -0.03125, 0.00000, 0.06250, 0.03125, -0.03125, 0.00000, -0.06250, 0.03125, 0.03125, -0.06250, 0.06250, 0.00000, 0.03125, 0.03125, 0.00000, 0.00000, 0.00000, -0.03125, 0.03125, 0.00000, 0.00000, -0.09375, 0.06250, -0.03125, 0.03125, 0.00000, 0.09375, -0.06250, 0.06250, 0.03125, 0.06250, 0.03125, 0.03125, 0.03125, 0.03125, -0.03125, -0.03125, 0.00000, 0.06250, 0.00000, -0.06250, 0.00000, 0.03125, 0.03125, 0.03125, 0.03125, -0.03125, 0.03125, -0.03125, 0.03125, 0.03125, -0.06250, 0.03125, -0.06250, -0.03125, -0.03125, 0.03125, -0.03125, 0.00000, 0.00000, 0.00000, 0.03125, 0.06250, -0.03125, 0.00000, 0.00000, -0.06250, -0.03125, 0.00000, -0.03125, 0.00000, 0.00000, -0.03125, 0.00000, -0.06250, 0.00000, -0.06250, 0.03125, 0.00000, -0.03125, 0.00000, 0.03125, -0.06250, 0.00000, 0.03125, 0.00000, -0.03125, 0.00000, -0.03125, -0.06250, 0.00000, 0.03125, 0.06250, 0.00000, -0.03125, -0.06250, -0.03125, 0.00000, 0.00000, 0.00000, 0.06250, -0.03125, 0.00000, 0.00000, -0.03125, 0.00000, -0.03125, 0.03125, 0.00000, 0.03125, 0.00000, 0.00000, 0.03125, 0.00000, -0.03125, -0.06250, -0.03125, -0.06250, 0.00000, -0.03125, -0.03125, 0.03125, 0.00000, 0.03125, 0.03125, -0.03125, -0.03125, 0.00000, 0.00000, -0.03125, 0.03125, -0.03125, 0.00000, 0.00000, 0.00000, 0.00000, 0.03125, 0.03125, -0.06250, 0.00000, 0.00000, 0.00000, -0.03125, 0.00000, 0.06250, 0.06250, 0.00000, -0.03125, 0.03125, 0.00000, 0.00000, -0.03125, -0.03125, -0.03125, -0.03125, -0.03125, 0.03125, 0.00000, 0.03125, 0.03125, 0.03125, -0.03125, 0.00000, -0.03125, 0.03125, -0.03125, 0.00000, 0.06250, 0.00000, 0.00000, 0.03125, 0.00000, 0.06250, 0.03125, 0.00000, -0.03125, 0.00000, 0.00000, 0.00000, -0.03125, 0.03125, 0.00000, 0.00000, -0.03125, 0.03125, 0.00000, 0.00000, 0.00000, 0.00000, 0.00000, 0.00000, -0.06250, -0.06250, 0.00000, -0.06250, -0.03125, 0.00000, 0.06250, -0.06250, 0.00000, -0.03125, 0.00000, -0.03125, 0.03125, 0.00000, 0.00000, -0.03125, 0.03125, -0.06250, -0.06250, 0.00000, 0.00000, 0.00000, 0.00000, -0.03125, 0.00000, 0.00000, 0.00000, 0.00000, 0.03125, -0.06250, -0.03125, 0.00000, 0.00000, -0.03125, 0.00000, -0.03125, -0.03125, 0.00000, 0.00000, 0.03125, 0.03125, 0.03125, 0.03125, 0.00000, -0.06250, 0.00000, -0.03125, 0.00000, 0.03125, 0.00000, 0.03125, -0.03125, -0.06250, -0.06250, 0.03125, -0.03125, 0.00000, 0.00000, -0.03125, 0.06250, 0.00000, -0.06250, -0.06250, 0.03125, -0.03125, 0.00000, 0.06250, -0.06250, 0.06250, -0.03125, -0.03125, 0.00000, 0.03125, -0.06250, -0.03125, -0.06250, 0.03125, 0.00000, -0.03125, -0.03125, 0.00000, 0.06250, 0.00000, 0.03125, 0.00000, 0.03125, -0.03125, 0.06250, -0.03125, 0.00000, 0.00000, -0.03125, 0.00000, 0.03125, 0.03125, -0.03125, -0.03125, 0.06250, 0.00000, 0.00000, -0.03125, 0.00000, 0.00000, 0.00000, -0.06250, -0.06250, 0.00000, 0.03125, 0.00000, 0.03125, 0.03125, 0.03125, -0.03125, 0.00000, -0.03125, -0.03125, -0.03125, 0.00000, 0.00000, -0.03125, 0.06250, 0.03125, -0.03125, -0.03125, -0.03125, 0.00000, 0.03125, 0.03125, -0.03125, 0.00000, 0.03125, 0.00000, -0.03125, 0.03125, -0.03125, 0.00000, 0.00000, 0.03125, -0.03125, -0.03125, 0.03125, 0.00000, -0.03125, 0.06250, 0.00000, 0.03125, -0.03125, 0.00000, -0.03125, 0.00000, -0.03125, 0.06250, 0.00000, -0.06250, 0.00000, 0.06250, -0.06250, 0.00000, 0.00000, 0.03125, 0.03125, 0.03125, 0.00000, 0.00000, 0.03125, 0.00000, -0.03125, 0.03125, 0.03125, 0.03125, 0.00000, -0.03125, 0.03125, 0.00000, -0.03125, 0.00000, -0.03125, -0.06250, -0.06250, -0.03125, 0.00000, 0.03125, 0.06250, -0.03125, -0.06250, -0.03125, 0.00000, 0.03125, 0.00000, 0.03125, 0.00000, 0.00000, 0.03125, 0.03125, 0.00000, 0.00000, 0.00000, 0.00000, -0.03125, -0.03125, 0.00000, 0.03125, 0.03125, -0.03125, 0.06250, -0.03125, 0.00000, 0.03125, -0.03125, 0.03125, 0.06250, 0.00000, 0.00000, 0.03125, 0.03125, -0.06250, 0.03125, 0.00000, -0.03125, 0.00000, -0.03125, -0.03125, 0.00000, -0.03125, -0.03125, 0.06250, 0.06250, 0.00000, 0.03125, 0.03125, 0.03125, -0.06250, -0.06250, 0.00000, 0.00000, -0.03125, 0.03125, 0.00000, 0.00000, 0.00000, 0.06250, 0.03125, 0.06250, -0.03125, -0.06250, 0.00000, 0.03125, 0.03125, -0.03125, 0.03125, 0.00000, -0.03125, 0.03125, 0.03125, 0.03125, -0.03125, -0.06250, -0.03125, 0.00000, -0.03125, -0.03125, 0.00000, 0.00000, 0.00000, 0.00000, -0.06250, 0.00000, 0.00000, -0.06250, 0.00000, 0.03125, 0.06250, 0.00000, 0.03125, -0.03125, 0.06250, -0.06250, 0.00000, 0.06250, 0.03125, 0.00000, 0.00000, 0.03125, 0.00000, 0.00000, -0.06250, 0.03125, 0.00000, 0.00000, 0.06250, 0.00000, 0.06250, 0.06250, 0.03125, -0.03125, -0.03125, 0.06250, 0.03125, 0.00000, 0.06250, 0.06250, 0.03125, 0.03125, -0.03125, 0.00000, 0.00000, -0.03125, 0.03125, -0.06250, -0.03125, -0.03125, 0.03125, 0.00000, 0.03125, -0.06250, -0.03125, 0.00000, -0.03125, 0.03125, -0.03125, 0.00000, 0.03125, -0.03125, 0.00000, -0.03125, 0.06250, 0.03125, 0.00000, -0.03125, -0.03125, 0.03125, 0.00000, 0.00000, 0.00000, 0.00000, 0.00000, 0.06250, 0.00000, -0.03125, -0.03125, 0.00000, 0.03125, 0.00000, 0.00000, 0.00000, 0.03125, 0.00000, -0.03125, 0.00000, 0.03125, 0.03125, 0.06250, 0.03125, -0.03125, -0.06250, 0.03125, -0.06250, 0.00000, 0.00000, 0.00000, 0.03125, 0.00000, 0.03125, -0.03125, 0.00000, 0.00000, 0.03125, 0.00000, 0.00000, 0.00000, -0.03125, 0.03125, 0.00000, 0.00000, -0.06250, 0.00000, 0.06250, 0.03125, 0.03125, 0.03125, 0.03125, 0.03125, 0.00000, 0.00000, -0.03125, 0.03125, 0.03125, -0.03125, 0.03125, 0.00000, 0.03125, 0.03125, 0.03125, -0.03125, -0.03125, 0.00000, -0.03125, 0.03125, 0.00000, 0.03125, 0.00000, 0.03125, 0.00000, 0.00000, 0.03125, 0.00000, 0.00000, 0.03125, 0.03125, -0.03125, 0.06250, 0.00000, 0.00000, -0.03125, 0.00000, 0.00000, 0.00000, 0.03125, -0.03125, 0.00000, 0.00000, 0.00000, -0.03125, -0.06250, -0.03125, 0.06250, -0.03125, 0.06250, 0.00000, 0.00000, -0.03125, -0.03125, 0.03125, 0.03125, 0.00000, 0.00000, 0.03125, 0.00000, 0.03125, 0.06250, 0.00000, 0.06250, 0.00000, -0.03125, 0.00000, -0.03125, 0.00000, 0.06250, 0.00000, -0.03125, 0.00000, 0.00000, 0.03125, -0.06250, -0.03125, 0.03125, 0.06250, 0.00000, 0.00000, 0.06250, 0.00000, 0.03125, -0.03125, 0.03125, 0.03125, 0.00000, 0.03125, 0.00000, -0.03125, 0.03125, 0.03125, 0.00000, -0.03125, 0.00000, -0.03125, 0.03125, 0.00000, 0.03125, -0.06250, 0.03125, 0.00000, 0.00000, -0.06250, -0.03125, 0.00000, 0.00000, 0.03125, -0.03125, -0.06250, 0.03125, 0.00000, -0.03125, 0.03125, -0.03125, -0.06250, 0.00000, -0.06250, -0.03125, 0.00000, 0.00000, -0.06250, 0.03125, 0.03125, 0.00000, 0.00000, -0.03125, 0.00000, 0.00000, -0.06250, -0.03125, -0.06250, 0.03125, 0.00000, 0.00000, 0.03125, 0.03125, 0.06250, 0.00000, 0.03125, -0.03125, 0.00000, 0.03125, -0.03125, -0.06250, 0.00000, 0.03125, 0.00000, -0.03125, 0.03125, 0.03125, 0.00000, 0.00000, -0.03125, -0.03125, -0.03125, 0.00000, 0.00000, 0.00000, 0.06250, 0.03125, 0.03125, -0.03125, 0.00000, 0.00000, -0.03125, -0.03125, -0.06250, 0.00000, 0.00000, 0.03125, 0.03125, -0.06250, -0.09375, 0.00000, 0.00000, -0.03125, 0.00000, 0.00000, 0.06250, 0.00000, 0.03125, -0.03125, 0.00000, -0.06250, 0.03125, 0.00000, 0.00000, 0.03125, 0.03125, 0.03125, -0.03125, 0.03125, 0.00000, 0.00000, 0.00000, 0.00000, -0.03125, -0.03125, 0.03125, 0.00000, 0.00000, 0.03125, -0.06250, 0.00000, 0.03125, -0.06250, 0.00000, -0.03125, -0.03125, 0.03125, -0.06250, 0.00000, 0.03125, -0.06250, 0.00000, -0.03125, -0.03125, 0.00000, 0.00000, -0.06250, -0.03125, -0.03125, 0.00000, 0.03125, 0.03125, 0.00000, 0.06250, 0.00000, 0.03125, 0.00000, 0.03125, 0.00000, 0.00000, -0.03125, -0.03125, 0.03125, -0.03125, 0.03125, -0.03125, 0.00000, 0.00000, 0.06250, 0.00000, 0.00000, -0.03125, -0.03125, 0.00000, -0.03125, 0.03125, -0.03125, 0.00000, 0.03125, -0.06250, 0.00000, -0.06250, 0.00000, 0.00000, 0.00000, -0.06250, 0.03125, -0.06250, 0.03125, -0.03125, -0.06250, 0.00000, 0.00000, -0.03125, 0.06250, -0.03125, -0.03125, -0.09375, 0.00000, 0.03125, 0.00000, -0.03125, -0.06250, 0.03125, 0.00000, 0.00000, -0.03125, 0.03125, 0.00000, 0.03125, -0.06250, 0.03125, 0.00000, -0.03125, 0.00000, 0.06250, -0.06250, -0.03125, 0.03125, 0.00000, 0.00000, -0.03125, -0.03125, 0.00000, 0.03125, 0.00000, 0.03125, 0.00000, 0.03125, 0.00000, -0.03125, 0.06250, 0.03125, -0.06250, 0.00000, 0.00000, 0.03125, 0.00000, -0.03125, -0.03125, 0.00000, 0.00000, 0.03125, 0.03125, 0.03125, 0.03125, -0.06250, 0.03125, -0.06250, -0.03125, 0.06250, 0.03125, 0.00000, -0.03125, 0.00000, 0.03125, 0.00000, 0.00000, 0.03125, 0.00000, 0.00000, 0.03125, -0.03125, -0.03125, -0.03125, -0.03125, 0.00000, 0.00000, -0.03125, 0.03125, 0.00000, 0.03125, 0.00000, 0.00000, 0.03125, -0.03125, 0.03125, -0.03125, 0.00000, 0.03125, 0.03125, 0.00000, -0.03125, 0.00000, -0.06250, 0.03125, 0.00000, -0.03125, 0.00000, -0.06250, -0.06250, -0.03125, 0.00000, 0.00000, 0.00000, 0.03125, 0.00000, -0.03125, 0.00000, -0.06250, 0.00000, 0.03125, -0.06250, -0.03125, 0.00000, 0.03125, 0.06250, -0.06250, 0.00000, 0.03125, -0.03125, -0.03125, 0.06250, 0.00000, 0.00000, -0.03125, 0.00000, -0.03125, 0.00000, 0.00000, -0.03125, 0.00000, -0.03125, -0.03125, 0.03125, -0.03125, 0.00000, 0.00000, -0.03125, -0.03125, 0.03125, 0.00000, -0.03125, 0.00000, 0.00000, 0.00000, 0.00000, 0.03125, -0.03125, 0.00000, 0.03125, -0.03125, 0.03125, -0.06250, -0.03125, 0.03125, 0.03125, -0.03125, 0.03125, -0.06250, 0.00000, 0.06250, 0.00000, -0.06250, 0.03125, 0.03125, 0.03125, -0.06250, -0.03125, 0.00000, 0.06250, 0.00000, 0.03125, 0.06250, 0.00000, 0.03125, 0.03125, 0.03125, 0.03125, -0.03125, 0.00000, -0.03125, 0.06250, 0.03125, 0.00000, 0.00000, -0.03125, -0.09375, -0.03125, -0.03125, 0.03125, 0.00000, 0.03125, 0.00000, -0.06250, -0.03125, 0.06250, -0.06250, -0.06250, 0.03125, 0.03125, -0.03125, 0.00000, 0.03125, 0.00000, -0.06250, 0.03125, 0.03125, 0.00000, 0.00000, -0.03125, -0.03125, 0.03125, -0.03125, 0.03125, 0.00000, -0.06250, 0.03125, 0.03125, 0.00000, 0.03125, 0.00000, 0.00000, 0.06250, 0.06250, 0.00000, -0.03125, 0.03125, -0.03125, 0.03125, 0.03125, 0.00000, 0.00000, 0.06250, -0.03125, -0.03125, 0.03125, 0.03125, 0.00000, 0.03125, -0.03125, 0.00000, 0.00000, 0.06250, 0.00000, -0.06250, 0.06250, 0.00000, 0.03125, -0.06250, 0.00000, 0.00000, 0.03125, 0.03125, -0.06250, 0.00000, 0.03125, -0.03125, -0.06250, 0.03125, -0.09375, -0.03125, 0.00000, -0.03125, -0.03125, 0.00000, 0.06250, 0.00000, 0.00000, 0.03125, -0.03125, 0.00000, -0.03125, 0.00000, 0.03125, -0.06250, 0.00000, -0.03125, -0.06250, -0.03125, -0.03125, 0.00000, -0.03125, 0.06250, -0.06250, -0.03125, -0.03125, 0.03125, 0.00000, 0.00000, -0.03125, -0.06250, 0.03125, -0.03125, 0.03125, -0.06250, -0.03125, 0.00000, 0.00000, 0.03125, -0.03125, 0.00000, -0.03125, 0.00000, 0.03125, -0.03125, 0.00000, -0.06250, 0.00000, -0.03125, 0.06250, 0.00000, 0.00000, -0.03125, 0.03125, 0.00000, -0.03125, 0.00000, 0.03125, 0.00000, 0.00000, 0.03125, 0.00000, -0.03125, 0.00000, 0.03125, 0.00000, -0.06250, -0.06250, 0.00000, -0.06250, 0.00000, -0.03125, 0.03125, 0.03125, -0.03125, 0.00000, 0.00000, 0.00000, 0.06250, 0.00000, -0.03125, -0.03125, 0.00000, -0.06250, 0.03125, 0.00000, 0.03125, 0.03125, 0.03125, 0.03125, 0.00000, 0.00000, 0.00000, -0.03125, -0.09375, 0.03125, -0.03125, 0.00000, 0.00000, 0.00000, -0.03125, 0.00000, 0.00000, 0.00000, 0.03125, 0.03125, 0.00000, 0.00000, -0.03125, 0.03125, 0.00000, 0.00000, 0.03125, 0.00000, -0.03125, -0.03125, -0.03125, 0.03125, -0.03125, 0.00000, 0.00000, -0.03125, 0.03125, -0.03125, 0.06250, 0.03125, 0.00000, -0.06250, -0.03125, 0.06250, 0.00000, 0.03125, 0.00000, 0.03125, 0.00000, 0.03125, 0.00000, 0.03125, -0.03125, 0.03125, -0.03125, 0.03125, 0.00000, 0.03125, 0.03125, 0.00000, -0.03125, -0.03125, -0.03125, 0.03125, 0.00000, -0.06250, 0.00000, -0.03125, 0.03125, 0.03125, 0.06250, 0.03125, 0.00000, 0.03125, -0.03125, 0.00000, -0.03125, 0.00000, 0.00000, -0.06250, 0.00000, -0.03125, 0.03125, -0.06250, -0.03125, 0.03125, 0.00000, 0.03125, 0.03125, -0.06250, -0.03125, 0.06250, 0.03125, -0.03125, 0.03125, 0.00000, 0.03125, 0.00000, 0.00000, -0.03125, 0.03125, 0.00000, -0.03125, 0.03125, -0.03125, 0.00000, 0.00000, 0.00000, 0.00000, -0.03125, -0.06250, -0.03125, 0.03125, -0.03125, -0.06250, -0.03125, 0.06250, 0.00000, 0.03125, 0.00000, 0.03125, 0.06250, 0.03125, -0.03125, -0.03125, 0.03125, -0.06250, 0.03125, -0.03125, -0.03125, -0.03125, 0.06250, -0.03125, 0.00000, 0.00000, 0.00000, -0.03125, 0.00000, -0.06250, 0.00000, 0.03125, 0.03125, 0.00000, 0.03125, 0.03125, 0.03125, 0.00000, -0.03125, 0.06250, 0.03125, 0.06250, 0.00000, 0.00000, 0.00000, -0.06250, 0.06250, 0.03125, 0.03125, -0.03125, 0.03125, 0.00000, 0.03125, -0.03125, 0.03125, 0.06250, 0.00000, 0.00000, 0.03125, 0.00000, 0.00000, 0.00000, 0.00000, 0.06250, 0.00000, 0.03125, 0.00000, 0.09375, -0.03125, -0.06250, 0.03125, 0.09375, 0.03125, 0.03125, 0.03125, -0.09375, 0.00000, -0.06250, 0.03125, -0.06250, 0.00000, -0.03125, 0.00000, 0.03125, 0.00000, -0.03125, 0.00000, -0.03125, -0.03125, -0.03125, -0.03125, -0.06250, 0.00000, -0.03125, -0.03125, -0.03125, -0.03125, -0.03125, -0.06250, -0.06250, 0.00000, -0.03125, 0.00000, 0.00000, 0.00000, -0.09375, 0.00000, 0.00000, 0.03125, -0.03125, 0.00000, -0.03125, -0.06250, -0.03125, 0.03125, 0.03125, -0.06250, 0.06250, -0.03125, 0.03125, 0.00000, 0.03125, -0.03125, 0.03125, 0.00000, 0.00000, -0.03125, -0.03125, 0.03125, -0.06250, -0.06250, -0.06250, 0.00000, -0.03125, 0.00000, -0.06250, 0.03125, 0.03125, 0.00000, -0.03125, -0.06250, -0.03125, 0.00000, -0.03125, 0.00000, -0.03125, 0.06250, 0.00000, -0.03125, 0.00000, 0.00000, 0.00000, -0.03125, -0.03125, 0.00000, -0.06250, 0.06250, -0.06250, 0.06250, 0.03125, 0.00000, -0.03125, 0.00000, 0.03125, 0.00000, 0.03125, 0.00000, -0.03125, 0.00000, 0.03125, 0.00000, 0.03125, 0.06250, -0.03125, 0.03125, 0.06250, 0.00000, 0.00000, 0.00000, -0.06250, 0.00000, -0.06250, 0.03125, 0.00000, 0.00000, 0.00000, 0.06250, -0.06250, -0.03125, 0.00000, 0.06250, 0.03125, 0.06250, 0.03125, 0.00000, 0.03125, 0.03125, -0.06250, 0.06250, -0.03125, -0.03125, 0.03125, -0.03125, 0.00000, 0.00000, 0.00000, -0.03125, -0.03125, -0.06250, 0.03125, 0.00000, 0.00000, 0.03125, 0.03125, -0.03125, 0.00000, 0.00000, 0.00000, 0.03125, -0.03125, 0.06250, -0.03125, 0.03125, -0.03125, 0.06250, 0.03125, 0.06250, 0.03125, -0.03125, 0.00000, -0.03125, 0.00000, -0.03125, 0.00000, 0.03125, 0.00000, 0.03125, 0.06250, 0.00000, -0.03125, -0.06250, 0.06250, 0.00000, 0.00000, -0.03125, 0.00000, 0.03125, -0.03125, 0.00000, 0.00000, -0.03125, -0.06250, 0.03125, -0.03125, 0.03125, 0.03125, -0.03125, 0.00000, 0.00000, 0.03125, 0.06250, 0.03125, 0.06250, -0.06250, 0.03125, 0.00000, -0.06250, 0.06250, 0.03125, -0.09375, 0.03125, -0.03125, -0.06250, 0.00000, 0.06250, 0.00000, -0.09375, -0.03125, -0.06250, 0.00000, 0.00000, 0.03125, -0.03125, 0.00000, -0.06250, -0.03125, 0.03125, 0.03125, 0.03125, -0.03125, -0.03125, -0.03125, 0.03125, 0.00000, -0.03125, -0.03125, -0.03125, 0.06250, -0.03125, 0.00000, 0.00000, 0.00000, 0.06250, -0.03125, 0.06250, 0.00000, -0.03125, -0.03125, 0.03125, 0.03125, 0.03125, 0.00000, 0.00000, 0.00000, 0.00000, 0.06250, -0.03125, -0.03125, 0.03125, 0.06250, -0.03125, -0.06250, 0.00000, 0.00000, 0.00000, -0.03125, 0.00000, -0.03125, -0.03125, -0.03125, -0.03125, 0.00000, 0.03125, 0.06250, -0.03125, 0.03125, 0.00000, -0.06250, 0.06250, -0.06250, -0.06250, -0.03125, 0.00000, 0.00000, 0.03125, 0.00000, 0.00000, 0.03125, -0.03125, -0.06250, 0.00000, -0.03125, 0.00000, 0.03125, 0.00000, 0.03125, -0.06250, 0.03125, -0.06250, -0.03125, -0.06250, -0.03125, -0.03125, 0.03125, 0.00000, -0.03125, -0.03125, -0.06250, 0.00000, 0.03125, 0.00000, -0.03125, -0.03125, -0.06250, 0.03125, 0.03125, 0.00000, -0.03125, 0.00000, -0.06250, 0.00000, 0.00000, -0.03125, 0.03125, 0.00000, -0.03125, 0.00000, 0.03125, 0.03125, 0.00000, -0.03125, 0.00000, 0.00000, -0.03125, -0.06250, -0.06250, -0.06250, -0.03125, 0.03125, 0.06250, 0.00000, 0.00000, -0.03125, -0.03125, 0.03125, -0.06250, 0.03125, -0.03125, 0.03125, -0.06250, -0.06250, 0.00000, -0.03125, 0.03125, 0.00000, 0.06250, -0.03125, 0.00000, -0.03125, 0.03125, 0.00000, 0.00000, 0.00000, 0.00000, -0.06250, 0.00000, 0.00000, -0.03125, -0.03125, -0.03125, 0.06250, 0.03125, 0.03125, -0.03125, 0.09375, -0.06250, 0.03125, -0.03125, 0.00000, -0.03125, -0.03125, 0.00000, -0.03125, 0.00000, 0.03125, 0.00000, -0.03125, 0.03125, -0.03125, -0.03125, 0.00000, -0.03125, 0.00000, -0.06250, 0.00000, 0.03125, -0.03125, 0.03125, -0.03125, -0.06250, 0.00000, 0.03125, -0.03125, 0.00000, 0.03125, 0.03125, -0.03125, 0.03125, 0.03125, 0.00000, 0.03125, 0.06250, 0.06250, -0.03125, -0.06250, -0.03125, -0.03125, -0.03125, 0.03125, -0.06250, 0.00000, -0.03125, 0.00000, 0.00000, -0.06250, -0.03125, 0.03125, -0.06250, 0.00000, 0.03125, -0.03125, 0.00000, 0.06250, -0.03125, 0.03125, 0.03125, 0.06250, 0.00000, 0.00000, 0.03125, -0.06250, -0.06250, 0.03125, 0.00000, -0.03125, -0.06250, 0.03125, 0.00000, 0.03125, 0.00000, -0.06250, -0.06250, 0.03125, 0.03125, -0.03125, 0.06250, -0.03125, 0.03125, 0.03125, 0.03125, 0.00000, 0.00000, -0.03125, 0.00000, -0.03125, 0.00000, -0.06250, -0.03125, -0.03125, -0.03125, 0.03125, 0.00000, 0.03125, -0.03125, 0.06250, -0.06250, -0.03125, 0.06250, -0.03125, 0.03125, 0.03125, -0.03125, 0.03125, 0.00000, 0.03125, 0.00000, 0.03125, 0.06250, -0.06250, -0.06250, 0.06250, -0.03125, 0.03125, -0.03125, 0.03125, 0.00000, 0.00000, 0.03125, -0.03125, 0.00000, 0.00000, 0.00000, 0.03125, -0.03125, 0.00000, -0.03125, 0.06250, 0.03125, -0.03125, 0.03125, -0.06250, -0.03125, -0.03125, 0.00000, 0.03125, 0.06250, 0.06250, 0.00000, 0.00000, -0.03125, -0.03125, -0.03125, 0.03125, 0.00000, -0.03125, 0.00000, 0.00000, 0.00000, 0.06250, 0.00000, 0.00000, 0.00000, -0.06250, -0.03125, -0.03125, 0.00000, -0.03125, -0.06250, -0.06250, 0.00000, 0.00000, 0.00000, 0.00000, 0.03125, -0.06250, 0.03125, 0.00000, -0.03125, -0.06250, 0.00000, 0.00000, -0.03125, 0.03125, -0.03125, 0.03125, 0.00000, 0.00000, 0.06250, -0.03125, 0.00000, 0.03125, -0.03125, 0.00000, -0.03125, -0.06250, 0.00000, 0.03125, 0.00000, 0.00000, 0.06250, -0.03125, -0.06250, 0.00000, 0.00000, 0.03125, -0.06250, -0.06250, 0.03125, 0.03125, 0.03125, 0.03125, 0.03125, 0.03125, -0.06250, -0.03125, 0.00000, 0.00000, -0.03125, 0.00000, 0.00000, -0.03125, 0.00000, -0.06250, 0.00000, 0.00000, -0.06250, 0.03125, -0.09375, -0.06250, -0.03125, 0.03125, 0.00000, 0.03125, 0.03125, -0.03125, 0.03125, 0.03125, 0.00000, 0.00000, -0.06250, 0.00000, -0.06250, 0.00000, 0.00000, -0.09375, 0.00000, 0.00000, -0.03125, 0.00000, 0.03125, -0.06250, 0.09375, -0.03125, 0.03125, 0.00000, 0.03125, 0.00000, 0.03125, 0.06250, -0.03125, 0.03125, 0.00000, 0.00000, -0.03125, 0.03125, 0.00000, -0.03125, -0.03125, 0.06250, -0.03125, 0.03125, -0.03125, -0.06250, -0.03125, -0.03125, 0.03125, -0.03125, 0.06250, 0.00000, -0.03125, -0.03125, 0.06250, -0.03125, 0.03125, -0.06250, -0.03125, -0.03125, -0.03125, 0.06250, 0.03125, -0.03125, 0.03125, 0.00000, -0.03125, 0.06250, -0.03125, 0.00000, -0.03125, 0.00000, 0.00000, 0.00000, 0.03125, -0.03125, 0.06250, -0.03125, 0.03125, -0.03125, 0.03125, -0.06250, 0.03125, -0.06250, 0.03125, 0.00000, 0.00000, 0.00000, -0.03125, -0.03125, 0.00000, 0.06250, 0.00000, -0.06250, 0.00000, 0.00000, -0.06250, 0.00000, -0.03125, -0.03125, 0.06250, 0.00000, -0.06250, -0.03125, -0.03125, -0.06250, 0.03125, -0.03125, 0.06250, -0.06250, -0.03125, -0.03125, 0.00000, 0.03125, 0.00000, -0.03125, 0.00000, 0.00000, -0.03125, -0.06250, 0.03125, 0.00000, -0.03125, 0.03125, 0.00000, 0.00000, 0.00000, 0.06250, 0.00000, 0.03125, 0.03125, -0.03125, 0.03125, -0.03125, 0.03125, -0.03125, 0.03125, -0.03125, 0.00000, 0.00000, -0.03125, -0.03125, 0.00000, 0.03125, 0.03125, 0.00000, 0.03125, 0.00000, 0.00000, 0.00000, -0.09375, -0.09375, 0.03125, 0.00000, 0.00000, -0.06250, -0.03125, -0.06250, 0.00000, 0.03125, -0.03125, 0.03125, -0.03125, -0.03125, 0.00000, 0.00000, 0.03125, 0.03125, 0.00000, 0.03125, 0.00000, 0.00000, -0.03125, 0.03125, -0.06250, 0.06250, 0.03125, 0.00000, 0.03125, 0.06250, -0.03125, 0.03125, -0.06250, 0.06250, 0.00000, 0.00000, 0.00000, -0.03125, -0.06250, 0.00000, -0.06250, -0.06250, 0.03125, 0.00000, -0.03125, 0.00000, 0.00000, 0.00000, -0.03125, -0.03125, 0.03125, 0.03125, -0.03125, 0.00000, 0.00000, 0.03125, -0.03125, 0.00000, -0.03125, 0.03125, -0.03125, 0.00000, 0.00000, -0.06250, -0.03125, -0.06250, -0.03125, 0.03125, 0.06250, 0.00000, -0.03125, 0.00000, -0.03125, -0.03125, 0.03125, 0.00000, -0.03125, 0.03125, -0.06250, 0.00000, 0.03125, -0.03125, 0.00000, 0.00000, -0.06250, 0.03125, 0.03125, 0.00000, 0.00000, 0.03125, 0.06250, 0.00000, -0.03125, 0.03125, 0.03125, -0.06250, 0.03125, -0.03125, 0.00000, 0.03125, 0.00000, 0.03125, 0.00000, 0.03125, -0.06250, -0.06250, 0.00000, 0.00000, 0.00000, 0.00000, -0.03125, -0.03125, 0.03125, 0.03125, 0.06250, -0.03125, 0.06250, 0.00000, 0.00000, 0.06250, 0.00000, 0.03125, 0.00000, 0.03125, 0.00000, -0.03125, 0.03125, 0.00000, 0.00000, 0.03125, 0.06250, -0.06250, 0.00000, 0.00000, -0.06250, 0.03125, -0.06250, 0.00000, 0.03125, -0.03125, 0.00000, -0.03125, -0.03125, -0.03125, -0.06250, -0.03125, 0.00000, -0.03125, -0.03125, -0.06250, 0.03125, -0.03125, 0.03125, -0.03125, 0.03125, 0.03125, 0.00000, -0.03125, -0.06250, 0.00000, 0.03125, 0.03125, -0.03125, -0.03125, 0.00000, -0.03125, 0.03125, 0.00000, 0.00000, 0.06250, 0.00000, 0.03125, -0.03125, 0.00000, -0.03125, 0.00000, 0.03125, -0.03125, 0.03125, -0.03125, 0.00000, 0.03125, -0.03125, 0.03125, 0.00000, 0.00000, 0.03125, -0.03125, 0.00000, -0.06250, 0.00000, -0.06250, 0.03125, -0.06250, 0.00000, 0.06250, 0.00000, 0.00000, 0.03125, 0.03125, 0.00000, 0.03125, -0.06250, 0.06250, 0.00000, 0.00000, -0.03125, -0.06250, 0.00000, 0.06250, 0.03125, 0.00000, 0.00000, 0.03125, 0.00000, 0.03125, -0.03125, 0.06250, -0.03125, 0.00000, -0.03125, 0.00000, 0.00000, -0.03125, 0.03125, 0.00000, 0.03125, -0.03125, 0.00000, 0.06250, 0.03125, -0.03125, 0.03125, -0.06250, -0.03125, 0.03125, 0.00000, -0.03125, -0.03125, 0.00000, 0.00000, -0.06250, 0.00000, 0.03125, -0.03125, 0.00000, 0.00000, -0.03125, -0.03125, -0.03125, -0.06250, 0.03125, -0.06250, 0.00000, 0.03125, 0.00000, 0.00000, 0.00000, -0.03125, 0.03125, 0.00000, 0.03125, -0.03125, 0.03125, 0.00000, 0.00000, 0.00000, 0.00000, -0.03125, -0.03125, -0.03125, -0.03125, -0.06250, 0.00000, 0.00000, 0.03125, -0.03125, 0.03125, 0.03125, -0.03125, -0.03125, 0.00000, -0.03125, 0.00000, -0.03125, 0.00000, -0.03125, -0.03125, 0.06250, -0.03125, 0.03125, 0.03125, 0.03125, -0.03125, 0.00000, 0.03125, -0.06250, 0.03125, 0.00000, 0.00000, -0.03125, -0.03125, 0.03125, 0.03125, 0.00000, 0.03125, 0.03125, 0.00000, -0.03125, 0.03125, 0.03125, -0.06250, -0.03125, 0.06250, -0.03125, 0.03125, 0.03125, 0.03125, 0.00000, 0.00000, -0.06250, -0.03125, -0.03125, 0.03125, -0.03125, 0.00000, -0.03125, 0.03125, 0.00000, -0.03125, -0.03125, -0.03125, 0.03125, 0.00000, 0.06250, 0.03125, 0.06250, -0.03125, -0.03125, 0.03125, -0.03125, -0.03125, 0.00000, 0.00000, 0.03125, -0.03125, -0.03125, 0.03125, 0.00000, 0.03125, 0.00000, -0.06250, -0.03125, 0.00000, 0.00000, 0.03125, 0.03125, 0.03125, 0.03125, -0.03125, 0.03125, 0.00000, 0.03125, 0.00000, 0.00000, 0.00000, 0.00000, -0.03125, 0.06250, 0.03125, 0.00000, 0.06250, -0.06250, 0.00000, 0.00000, 0.00000, -0.03125, 0.00000, 0.00000, 0.00000, 0.06250, 0.03125, -0.06250, 0.09375, 0.00000, 0.03125, -0.06250, 0.03125, 0.03125, 0.00000, 0.03125, 0.03125, 0.06250, -0.03125, 0.00000, 0.03125, 0.06250, 0.00000, 0.03125, 0.00000, 0.03125, 0.00000, -0.06250, -0.03125, 0.00000, -0.03125, -0.03125, 0.06250, -0.03125, -0.03125, 0.03125, 0.00000, 0.03125, 0.06250, 0.00000, -0.03125, 0.03125, 0.00000, 0.06250, 0.00000, -0.03125, 0.03125, 0.00000, -0.03125, -0.03125, -0.03125, 0.00000, 0.06250, 0.03125, 0.00000, 0.03125, -0.06250, 0.00000, -0.09375, -0.03125, 0.00000, 0.03125, 0.00000, 0.03125, -0.06250, 0.00000, 0.00000, -0.03125, 0.00000, 0.00000, -0.06250, -0.03125, 0.00000, 0.03125, 0.00000, 0.03125, -0.03125, 0.00000, 0.06250, 0.00000, 0.03125, -0.03125, 0.00000, -0.09375, 0.03125, -0.03125, 0.00000, 0.00000, 0.00000, 0.00000, 0.06250, 0.00000, 0.00000, 0.00000, 0.00000, 0.06250, 0.00000, 0.03125, 0.00000, 0.06250, -0.06250, 0.00000, 0.03125, -0.03125, -0.06250, 0.00000, 0.00000, -0.03125, 0.00000, 0.00000, -0.03125, 0.00000, -0.03125, 0.03125, 0.00000, -0.06250, -0.03125, -0.03125, 0.00000, 0.00000, -0.03125, 0.00000, 0.03125, 0.00000, 0.00000, 0.00000, -0.03125, 0.06250, 0.03125, 0.00000, 0.00000, 0.00000, -0.03125, -0.06250, -0.03125, 0.00000, -0.03125, 0.03125, -0.03125, -0.03125, 0.00000, -0.03125, -0.03125, -0.03125, 0.00000, -0.06250, 0.03125, 0.00000, 0.00000, 0.00000, 0.00000, -0.03125, 0.03125, -0.03125, -0.03125, 0.06250, -0.03125, -0.03125, 0.03125, 0.03125, 0.00000, -0.03125, -0.03125, 0.00000, -0.03125, -0.03125, 0.06250, -0.03125, 0.00000, 0.00000, -0.03125, 0.03125, 0.06250, 0.00000, 0.03125, -0.03125, 0.06250, 0.00000, 0.00000, -0.03125, -0.03125, 0.03125, 0.03125, -0.06250, 0.03125, 0.00000, -0.03125, -0.03125, 0.03125, -0.03125, 0.03125, -0.03125, 0.03125, 0.00000, 0.03125, 0.00000, 0.03125, 0.06250, 0.00000, 0.00000, 0.00000, -0.03125, 0.00000, -0.06250, -0.03125, 0.00000, 0.00000, -0.03125, -0.06250, 0.03125, -0.03125, 0.03125, 0.00000, 0.00000, 0.00000, 0.00000, 0.00000, -0.06250, 0.03125, -0.03125, 0.03125, 0.03125, 0.03125, 0.03125, -0.03125, 0.00000, -0.03125, 0.00000, -0.06250, 0.09375, 0.00000, 0.00000, 0.00000, 0.03125, -0.03125, 0.00000, 0.00000, 0.00000, 0.03125, -0.06250, 0.03125, -0.03125, 0.03125, 0.06250, 0.00000, -0.03125, -0.03125, 0.00000, 0.00000, 0.03125, 0.00000, 0.00000, 0.03125, 0.06250, -0.03125, -0.03125, -0.06250, 0.06250, -0.03125, 0.00000, 0.00000, 0.00000, -0.06250, -0.09375, 0.06250, 0.00000, -0.03125, 0.03125, 0.03125, 0.00000, 0.00000, 0.00000, -0.06250, 0.00000, 0.00000, -0.03125, -0.03125, 0.00000, -0.03125, -0.03125, 0.00000, 0.00000, 0.00000, 0.00000, 0.03125, 0.03125, -0.03125, 0.00000, -0.06250, -0.03125, 0.06250, -0.03125, 0.06250, 0.03125, 0.00000, 0.00000, -0.03125, -0.03125, 0.00000, 0.00000, 0.06250, 0.03125, 0.00000, 0.00000, 0.03125, 0.00000, 0.00000, 0.00000, -0.03125, 0.03125, 0.06250, 0.00000, -0.03125, 0.00000, -0.03125, 0.00000, -0.03125, -0.03125, 0.03125, 0.00000, -0.03125, 0.03125, -0.03125, 0.03125, 0.03125, 0.06250, 0.00000, 0.00000, -0.03125, -0.03125, 0.00000, -0.03125, 0.00000, 0.06250, -0.03125, -0.03125, 0.00000, 0.00000, 0.03125, 0.00000, -0.03125, 0.00000, -0.03125, 0.00000, 0.06250, 0.03125, 0.00000, 0.00000, 0.03125, 0.03125, 0.00000, -0.03125, 0.00000, -0.03125, -0.06250, 0.00000, 0.00000, 0.03125, 0.03125, -0.03125, 0.03125, -0.03125, 0.00000, -0.03125, 0.00000, -0.06250, -0.03125, -0.06250, -0.03125, -0.03125, 0.00000, -0.03125, 0.06250, 0.00000, 0.06250, 0.00000, -0.06250, 0.00000, -0.03125, 0.00000, 0.03125, -0.03125, 0.00000, -0.06250, 0.00000, 0.00000, 0.00000, -0.03125, 0.00000, 0.00000, 0.00000, 0.00000, 0.03125, -0.03125, 0.00000, -0.06250, -0.06250, -0.03125, 0.00000, 0.00000, 0.00000, 0.00000, -0.03125, -0.03125, 0.03125, -0.03125, 0.03125, 0.00000, -0.03125, 0.03125, 0.00000, -0.03125, 0.00000, 0.03125, 0.00000, 0.00000, -0.03125, 0.03125, 0.00000, -0.03125, 0.00000, 0.00000, 0.00000, 0.00000, 0.00000, 0.03125, 0.03125, 0.03125, 0.03125, -0.03125, 0.00000, 0.03125, 0.03125, 0.00000, 0.03125, -0.03125, 0.00000, 0.06250, -0.03125, 0.03125, -0.03125, 0.00000, -0.03125, -0.03125, 0.03125, -0.03125, 0.00000, -0.03125, 0.00000, 0.03125, -0.03125, -0.03125, -0.03125, -0.03125, -0.03125, 0.00000, 0.00000, 0.06250, -0.03125, -0.06250, -0.03125, -0.03125, -0.03125, -0.03125, -0.03125, 0.03125, 0.03125, -0.03125, -0.03125, 0.03125, -0.06250, 0.00000, 0.03125, -0.03125, 0.06250, -0.03125, 0.03125, 0.03125, 0.06250, -0.09375, -0.06250, -0.03125, -0.03125, 0.06250, 0.06250, 0.03125, -0.03125, -0.03125, -0.06250, -0.09375, 0.06250, 0.00000, -0.03125, -0.03125, 0.03125, -0.06250, 0.03125, 0.00000, -0.03125, 0.00000, -0.03125, 0.03125, 0.00000, 0.00000, -0.06250, 0.00000, 0.03125, 0.00000, 0.00000, -0.03125, -0.06250, -0.06250, 0.00000, 0.03125, -0.06250, 0.06250, -0.03125, -0.03125, 0.00000, -0.03125, 0.03125, 0.00000, 0.00000, -0.06250, 0.00000, -0.03125, 0.00000, 0.03125, -0.03125, 0.00000, -0.06250, 0.03125, -0.03125, 0.00000, -0.03125, -0.03125, -0.03125, 0.00000, -0.03125, 0.06250, -0.03125, -0.03125, 0.00000, 0.00000, -0.06250, -0.03125, 0.03125, 0.00000, 0.00000, 0.03125, 0.03125, -0.03125, 0.03125, 0.03125, 0.03125, -0.03125, -0.06250, 0.00000, 0.03125, 0.00000, 0.00000, 0.03125, -0.03125, 0.00000, -0.06250, -0.03125, -0.06250, 0.00000, -0.03125, 0.06250, 0.00000, -0.03125, -0.03125, -0.03125, 0.00000, -0.03125, -0.03125, -0.03125, -0.03125, 0.00000, 0.00000, -0.03125, -0.03125, 0.06250, -0.06250, 0.00000, 0.00000, 0.00000, -0.03125, 0.03125, -0.03125, 0.00000, 0.00000, -0.03125, 0.03125, 0.00000, 0.00000, -0.03125, 0.06250, 0.00000, 0.03125, 0.00000, -0.03125, -0.09375, 0.00000, 0.00000, 0.06250, -0.06250, 0.00000, -0.03125, -0.03125, -0.03125, 0.03125, -0.03125, 0.00000, 0.06250, 0.00000, -0.03125, 0.00000, -0.06250, 0.03125, 0.00000, 0.00000, 0.00000, 0.00000, 0.00000, 0.00000, 0.00000, 0.03125, 0.00000, 0.03125, -0.06250, -0.03125, -0.03125, 0.03125, -0.03125, 0.03125, 0.00000, 0.00000, 0.03125, -0.03125, 0.00000, 0.00000, -0.06250, -0.03125, 0.00000, 0.06250, 0.00000, -0.03125, 0.00000, -0.06250, -0.03125, 0.03125, -0.03125, 0.00000, 0.00000, 0.00000, 0.06250, 0.00000, 0.03125, 0.00000, 0.00000, 0.03125, -0.03125, -0.03125, 0.00000, 0.00000, 0.00000, 0.00000, 0.03125, 0.03125, -0.03125, -0.06250, -0.03125, 0.00000, 0.00000, -0.03125, 0.00000, -0.03125, -0.03125, -0.03125, 0.06250, 0.06250, 0.03125, 0.00000, -0.03125, 0.00000, 0.00000, 0.03125, 0.00000, -0.03125, -0.03125, -0.03125, 0.06250, -0.03125, 0.03125, 0.03125, 0.03125, 0.03125, -0.06250, -0.03125, 0.00000, 0.06250, 0.03125, 0.00000, -0.03125, 0.00000, 0.03125, 0.03125, -0.03125, 0.03125, 0.00000, -0.06250, 0.00000, 0.03125, 0.00000, 0.00000, -0.03125, -0.03125, 0.03125, 0.00000, -0.06250, 0.03125, 0.03125, -0.03125, -0.03125, -0.03125, 0.00000, 0.03125, 0.03125, 0.06250, 0.00000, 0.00000, 0.00000, 0.06250, 0.03125, 0.03125, 0.03125, 0.06250, 0.00000, 0.03125, -0.06250, 0.00000, 0.00000, -0.06250, 0.03125, 0.03125, 0.00000, -0.03125, 0.00000, 0.00000, 0.00000, -0.03125, 0.03125, 0.00000, -0.03125, 0.06250, 0.03125, 0.06250, -0.03125, -0.03125, 0.00000, 0.00000, 0.00000, -0.03125, 0.00000, -0.03125, 0.00000, -0.03125, 0.06250, 0.03125, -0.03125, -0.03125, -0.03125, 0.03125, -0.03125, -0.03125, -0.06250, 0.00000, -0.06250, 0.03125, -0.03125, 0.03125, 0.00000, -0.03125, 0.00000, -0.06250, 0.03125, -0.03125, 0.03125, -0.03125, 0.00000, 0.03125, 0.03125, 0.00000, 0.00000, 0.03125, 0.03125, -0.03125, 0.00000, 0.00000, -0.03125, -0.06250, -0.06250, -0.06250, 0.03125, -0.03125, -0.03125, 0.06250, -0.06250, 0.00000, 0.00000, -0.03125, 0.03125, -0.03125, 0.00000, -0.06250, 0.03125, -0.06250, 0.00000, 0.00000, 0.00000, 0.03125, 0.06250, -0.03125, 0.06250, 0.09375, -0.03125, -0.06250, -0.06250, -0.06250, -0.03125, 0.00000, 0.00000, 0.06250, 0.00000, 0.03125, 0.00000, 0.00000, 0.06250, 0.00000, 0.00000, -0.06250, -0.03125, 0.00000, 0.00000, 0.03125, 0.00000, 0.03125, -0.03125, 0.00000, -0.03125, 0.06250, 0.03125, 0.06250, 0.00000, 0.06250, 0.06250, 0.03125, 0.03125, 0.06250, 0.06250, -0.06250, 0.00000, 0.03125, 0.00000, -0.03125, -0.03125, 0.00000, -0.03125, 0.00000, 0.03125, -0.03125, 0.00000, -0.06250, 0.00000, -0.06250, -0.03125, -0.03125, 0.00000, -0.03125, -0.06250, 0.03125, 0.00000, 0.03125, 0.06250, 0.00000, 0.03125, -0.03125, 0.03125, 0.03125, 0.00000, -0.03125, -0.03125, 0.03125, 0.06250, 0.00000, -0.03125, 0.03125, 0.03125, -0.03125, 0.03125, 0.00000, -0.03125, 0.03125, 0.03125, -0.06250, 0.00000, -0.03125, 0.03125, -0.03125, 0.03125, 0.03125, 0.00000, -0.03125, 0.03125, -0.03125, 0.00000, 0.00000, 0.03125, 0.03125, 0.03125, 0.03125, 0.06250, 0.03125, -0.03125, 0.03125, 0.03125, -0.03125, 0.00000, 0.03125, 0.00000, -0.03125, 0.03125, 0.00000, 0.00000, 0.06250, -0.03125, 0.03125, 0.00000, 0.03125, 0.03125, 0.00000, -0.06250, -0.03125, -0.03125, 0.00000, 0.00000, -0.03125, 0.00000, 0.00000, 0.00000, 0.00000, 0.00000, -0.03125, 0.03125, 0.00000, 0.00000, 0.00000, -0.03125, -0.03125, 0.00000, 0.03125, 0.06250, -0.03125, -0.03125, -0.03125, -0.03125, 0.06250, 0.00000, 0.00000, 0.03125, 0.03125, 0.03125, 0.03125, 0.03125, -0.03125, 0.00000, 0.00000, 0.06250, -0.03125, 0.03125, 0.00000, 0.03125, 0.00000, 0.06250, 0.03125, -0.03125, 0.00000, -0.06250, -0.03125, 0.00000, 0.00000, -0.03125, 0.03125, -0.03125, 0.06250, 0.00000, 0.00000, 0.03125, 0.00000, 0.03125, 0.00000, 0.00000, -0.03125, 0.00000, 0.06250, -0.03125, -0.03125, -0.06250, -0.03125, 0.03125, 0.00000, -0.06250, -0.06250, 0.00000, -0.03125, 0.03125, -0.03125, 0.00000, -0.03125, 0.06250, 0.03125, 0.00000, -0.03125, 0.03125, -0.06250, 0.00000, -0.06250, 0.03125, -0.03125, 0.00000, 0.03125, 0.00000, 0.00000, 0.03125, -0.03125, 0.00000, 0.00000, -0.03125, -0.03125, -0.03125, 0.00000, 0.03125, 0.00000, 0.00000, -0.03125, -0.03125, -0.03125, 0.03125, 0.00000, 0.00000, 0.03125, -0.06250, 0.03125, 0.00000, 0.00000, 0.03125, -0.06250, 0.00000, 0.00000, 0.03125, 0.00000, 0.00000, 0.00000, 0.00000, 0.00000, 0.00000, 0.03125, -0.09375, 0.03125, 0.06250, -0.09375, 0.00000, 0.03125, 0.03125, 0.03125, 0.06250, 0.03125, 0.00000, 0.03125, -0.03125, -0.03125, -0.06250, -0.03125, 0.03125, -0.03125, -0.03125, -0.03125, -0.03125, 0.03125, 0.03125, -0.06250, 0.00000, 0.03125, -0.03125, -0.03125, 0.00000, -0.06250, 0.03125, 0.03125, 0.03125, 0.00000, -0.06250, 0.06250, 0.00000, -0.03125, -0.03125, 0.00000, -0.03125, 0.00000, 0.03125, 0.00000, 0.00000, 0.00000, -0.06250, -0.03125, 0.03125, 0.06250, -0.06250, 0.00000, 0.06250, -0.03125, 0.00000, -0.06250, 0.00000, 0.06250, 0.00000, 0.00000, 0.03125, -0.03125, 0.03125, 0.00000, 0.00000, -0.03125, 0.00000, 0.03125, -0.06250, 0.00000, 0.03125, 0.00000, 0.03125, -0.03125, 0.00000, 0.03125, -0.03125, 0.06250, 0.03125, 0.03125, -0.03125, -0.03125, 0.00000, -0.06250, -0.06250, -0.03125, 0.03125, 0.03125, 0.00000, 0.00000, 0.03125, 0.00000, 0.00000, 0.03125, -0.06250, 0.00000, 0.00000, 0.00000, -0.03125, -0.03125, 0.06250, -0.03125, -0.03125, 0.06250, 0.03125, -0.03125, 0.03125, 0.00000, -0.03125, 0.03125, -0.06250, 0.03125, 0.00000, -0.03125, 0.06250, -0.06250, -0.03125, -0.06250, -0.06250, -0.03125, -0.06250, 0.00000, 0.03125, 0.03125, 0.06250, 0.03125, 0.00000, 0.00000, 0.03125, 0.03125, -0.03125, 0.00000, -0.06250, 0.03125, -0.06250, 0.00000, 0.00000, 0.03125, -0.06250, -0.09375, 0.03125, 0.00000, 0.00000, 0.03125, 0.00000, 0.00000, 0.03125, -0.03125, -0.06250, 0.00000, 0.00000, 0.03125, 0.03125, 0.00000, 0.03125, 0.00000, 0.03125, 0.00000, -0.03125, -0.06250, 0.00000, 0.00000, 0.00000, 0.00000, 0.00000, 0.00000, 0.03125, 0.03125, -0.06250, 0.03125, 0.00000, -0.03125, 0.09375, 0.03125, 0.03125, 0.03125, 0.00000, 0.00000, -0.06250, 0.00000, -0.03125, 0.03125, 0.06250, 0.03125, -0.03125, -0.03125, -0.03125, 0.03125, 0.03125, 0.03125, 0.03125, 0.00000, 0.03125, -0.03125, 0.03125, 0.00000, 0.00000, 0.03125, 0.00000, -0.06250, 0.00000, 0.00000, 0.03125, 0.03125, -0.03125, 0.00000, 0.00000, 0.00000, 