//Numpy array shape [4, 4, 32, 4]
//Min -0.156250000000
//Max 0.156250000000
//Number of zeros 372

#ifndef W5_H_
#define W5_H_

#ifndef __SYNTHESIS__
weight5_t w5[2048];
#else
weight5_t w5[2048] = {0.09375, 0.03125, 0.00000, -0.12500, -0.03125, 0.03125, 0.03125, -0.03125, 0.03125, 0.06250, -0.06250, 0.09375, 0.09375, 0.00000, -0.09375, -0.06250, 0.00000, -0.06250, 0.00000, 0.03125, 0.03125, -0.03125, -0.03125, 0.00000, 0.00000, 0.00000, 0.00000, 0.03125, -0.03125, 0.03125, 0.00000, 0.03125, 0.00000, 0.03125, -0.06250, 0.09375, -0.06250, 0.00000, -0.03125, 0.03125, 0.00000, 0.06250, 0.06250, -0.03125, 0.00000, 0.03125, 0.03125, -0.03125, -0.09375, 0.06250, -0.03125, -0.06250, 0.09375, -0.03125, -0.03125, -0.09375, -0.06250, 0.00000, 0.00000, -0.09375, 0.00000, -0.06250, 0.00000, -0.09375, 0.03125, 0.03125, -0.03125, 0.00000, -0.03125, -0.03125, -0.09375, -0.09375, 0.03125, 0.06250, 0.00000, 0.03125, 0.00000, 0.03125, 0.06250, 0.06250, -0.03125, -0.03125, -0.09375, -0.03125, -0.06250, 0.00000, 0.00000, 0.00000, 0.00000, 0.06250, -0.03125, 0.06250, -0.06250, 0.00000, -0.09375, -0.03125, 0.03125, -0.03125, -0.06250, 0.03125, -0.03125, 0.00000, 0.03125, -0.09375, 0.00000, 0.03125, 0.00000, -0.03125, -0.06250, 0.00000, -0.06250, -0.09375, 0.03125, -0.03125, -0.06250, 0.12500, 0.00000, 0.00000, 0.03125, -0.06250, 0.00000, -0.06250, 0.00000, 0.00000, 0.03125, 0.06250, -0.09375, 0.12500, 0.06250, 0.03125, -0.12500, 0.00000, 0.00000, -0.03125, 0.03125, -0.06250, -0.06250, 0.03125, -0.06250, 0.00000, 0.00000, -0.03125, -0.03125, -0.03125, -0.06250, 0.00000, 0.03125, 0.12500, -0.03125, 0.06250, 0.03125, -0.09375, 0.00000, 0.06250, -0.03125, 0.00000, -0.06250, -0.06250, 0.03125, -0.09375, 0.03125, -0.03125, 0.00000, -0.03125, 0.03125, 0.00000, -0.12500, 0.03125, 0.03125, 0.06250, -0.03125, 0.00000, -0.06250, 0.03125, 0.09375, 0.00000, 0.00000, -0.06250, -0.09375, 0.00000, 0.09375, -0.06250, -0.12500, 0.00000, -0.06250, 0.00000, -0.06250, 0.03125, 0.06250, 0.03125, 0.00000, -0.03125, 0.03125, 0.00000, -0.06250, 0.03125, 0.00000, 0.00000, 0.06250, 0.00000, -0.06250, -0.03125, 0.09375, 0.00000, 0.03125, 0.00000, 0.06250, 0.12500, -0.09375, -0.06250, -0.12500, 0.06250, -0.03125, -0.03125, 0.03125, 0.03125, 0.06250, 0.06250, -0.09375, 0.03125, 0.03125, -0.06250, 0.03125, 0.09375, -0.06250, -0.03125, -0.06250, 0.03125, 0.00000, -0.06250, 0.09375, 0.00000, 0.03125, 0.03125, -0.03125, 0.00000, 0.00000, 0.03125, 0.00000, 0.00000, 0.06250, 0.06250, 0.06250, 0.09375, 0.03125, 0.00000, -0.09375, 0.00000, 0.00000, 0.00000, 0.06250, -0.03125, 0.09375, 0.03125, 0.06250, -0.03125, 0.03125, 0.03125, 0.09375, -0.09375, 0.00000, 0.03125, 0.00000, -0.06250, 0.00000, -0.06250, -0.03125, 0.06250, 0.03125, 0.00000, -0.03125, -0.06250, 0.00000, 0.03125, 0.00000, -0.06250, -0.03125, -0.06250, -0.06250, 0.06250, 0.00000, 0.00000, -0.03125, -0.09375, -0.06250, 0.09375, -0.12500, -0.06250, 0.03125, 0.00000, -0.15625, -0.06250, 0.06250, -0.06250, 0.03125, 0.00000, 0.03125, 0.00000, 0.15625, -0.12500, 0.06250, 0.00000, -0.03125, -0.03125, -0.06250, 0.03125, 0.00000, -0.09375, -0.03125, 0.00000, -0.12500, 0.00000, -0.06250, 0.00000, 0.12500, 0.03125, -0.03125, -0.03125, 0.03125, -0.03125, 0.06250, 0.03125, -0.03125, 0.03125, 0.03125, -0.03125, 0.09375, 0.03125, 0.09375, -0.06250, 0.09375, -0.06250, 0.00000, 0.00000, 0.03125, 0.06250, -0.03125, 0.03125, -0.03125, -0.03125, 0.00000, 0.03125, -0.12500, 0.09375, 0.00000, -0.03125, -0.09375, -0.03125, 0.03125, 0.00000, 0.12500, 0.03125, 0.03125, -0.09375, -0.12500, -0.12500, -0.09375, -0.06250, 0.00000, 0.09375, 0.03125, -0.09375, 0.03125, -0.06250, 0.09375, -0.03125, -0.06250, 0.09375, -0.03125, -0.03125, -0.06250, 0.00000, -0.03125, 0.00000, -0.06250, 0.06250, 0.00000, 0.00000, -0.09375, 0.03125, 0.09375, 0.00000, 0.09375, 0.09375, 0.06250, 0.00000, -0.06250, 0.00000, 0.03125, 0.03125, 0.06250, -0.09375, -0.06250, 0.06250, 0.00000, 0.09375, 0.03125, 0.00000, -0.03125, 0.06250, -0.06250, 0.03125, -0.06250, 0.03125, -0.03125, 0.03125, 0.09375, 0.03125, -0.03125, 0.00000, 0.03125, 0.00000, -0.06250, 0.03125, 0.06250, 0.03125, -0.03125, 0.06250, 0.06250, -0.03125, 0.06250, 0.06250, 0.00000, -0.03125, 0.00000, 0.03125, 0.09375, 0.00000, -0.03125, 0.00000, -0.03125, 0.00000, 0.09375, 0.00000, 0.06250, -0.06250, 0.06250, -0.06250, 0.00000, -0.12500, -0.09375, 0.03125, 0.09375, -0.03125, 0.03125, -0.09375, 0.03125, 0.06250, -0.03125, 0.06250, 0.03125, 0.03125, -0.06250, -0.03125, 0.03125, 0.00000, 0.00000, 0.00000, 0.06250, 0.03125, -0.06250, -0.06250, 0.09375, 0.09375, 0.03125, 0.00000, 0.00000, 0.00000, 0.06250, -0.06250, 0.03125, 0.03125, 0.00000, 0.00000, 0.06250, 0.03125, -0.03125, -0.06250, 0.00000, -0.09375, -0.03125, 0.00000, -0.06250, 0.03125, 0.09375, 0.03125, 0.03125, 0.06250, -0.06250, 0.00000, -0.06250, 0.06250, 0.03125, -0.09375, 0.12500, -0.06250, 0.09375, 0.00000, 0.03125, -0.06250, 0.06250, 0.00000, -0.09375, -0.12500, -0.03125, 0.03125, -0.03125, 0.00000, -0.03125, 0.00000, -0.09375, -0.12500, 0.03125, -0.06250, 0.00000, 0.09375, 0.00000, 0.03125, -0.15625, 0.09375, -0.06250, 0.03125, -0.03125, 0.00000, 0.03125, 0.03125, -0.06250, -0.06250, 0.00000, -0.03125, 0.00000, 0.00000, -0.03125, 0.03125, 0.00000, -0.03125, 0.00000, -0.06250, 0.09375, 0.03125, -0.03125, -0.03125, 0.06250, 0.00000, 0.00000, 0.00000, -0.09375, 0.06250, -0.06250, -0.03125, -0.06250, 0.03125, 0.00000, 0.03125, 0.06250, -0.03125, 0.06250, 0.03125, -0.12500, 0.03125, 0.00000, -0.06250, -0.06250, 0.03125, 0.00000, 0.06250, -0.15625, -0.09375, -0.03125, -0.06250, 0.09375, 0.09375, 0.09375, 0.03125, 0.06250, 0.06250, 0.09375, -0.06250, -0.06250, 0.00000, -0.03125, -0.03125, -0.03125, 0.06250, 0.00000, -0.03125, -0.03125, 0.00000, -0.09375, -0.03125, 0.09375, 0.00000, 0.00000, -0.03125, -0.06250, -0.03125, 0.00000, 0.00000, 0.00000, -0.03125, 0.00000, 0.03125, 0.00000, 0.00000, -0.06250, 0.03125, 0.00000, 0.00000, 0.03125, 0.06250, 0.00000, 0.00000, -0.06250, 0.03125, -0.03125, 0.03125, 0.06250, -0.06250, 0.03125, 0.00000, -0.09375, 0.06250, 0.00000, 0.00000, 0.00000, 0.03125, -0.06250, -0.12500, 0.03125, 0.06250, -0.03125, 0.09375, 0.06250, -0.03125, -0.09375, -0.03125, -0.03125, 0.06250, 0.03125, 0.03125, 0.00000, -0.03125, -0.03125, -0.09375, -0.06250, -0.03125, 0.03125, -0.09375, -0.06250, 0.03125, -0.03125, 0.03125, 0.00000, 0.09375, 0.03125, 0.06250, 0.09375, 0.03125, 0.06250, 0.00000, 0.03125, 0.06250, 0.03125, -0.03125, 0.03125, 0.00000, -0.06250, 0.06250, 0.03125, -0.03125, 0.06250, 0.03125, 0.03125, -0.03125, -0.03125, 0.00000, 0.06250, 0.06250, -0.09375, -0.03125, 0.06250, 0.06250, 0.09375, 0.09375, -0.03125, -0.03125, 0.03125, 0.00000, 0.03125, 0.03125, 0.00000, 0.03125, 0.00000, 0.00000, 0.03125, -0.12500, 0.09375, 0.00000, -0.03125, 0.03125, -0.03125, -0.03125, 0.03125, 0.03125, 0.09375, 0.00000, -0.06250, 0.00000, 0.06250, -0.06250, -0.06250, -0.03125, 0.03125, -0.03125, 0.06250, 0.00000, -0.06250, 0.03125, 0.15625, -0.03125, -0.03125, 0.00000, 0.09375, -0.03125, 0.00000, -0.09375, 0.03125, -0.09375, -0.03125, 0.06250, 0.03125, -0.03125, -0.06250, -0.09375, 0.03125, -0.03125, 0.03125, -0.06250, 0.03125, 0.00000, -0.03125, 0.00000, -0.06250, -0.06250, -0.03125, -0.03125, -0.06250, -0.09375, 0.06250, 0.03125, 0.03125, 0.00000, -0.06250, 0.00000, 0.00000, 0.03125, 0.06250, 0.06250, 0.06250, -0.09375, -0.12500, 0.03125, 0.00000, 0.00000, 0.06250, 0.06250, -0.06250, 0.00000, 0.03125, 0.06250, -0.06250, -0.03125, 0.00000, 0.03125, 0.00000, -0.09375, 0.03125, -0.03125, 0.00000, -0.06250, -0.09375, 0.03125, 0.12500, 0.00000, 0.03125, -0.06250, -0.09375, 0.03125, 0.00000, 0.03125, -0.06250, 0.06250, 0.06250, -0.03125, 0.06250, -0.12500, 0.00000, 0.06250, -0.09375, -0.06250, 0.00000, 0.00000, 0.00000, -0.03125, 0.06250, -0.03125, -0.03125, -0.09375, 0.03125, -0.03125, 0.06250, 0.06250, 0.06250, -0.06250, 0.06250, -0.03125, 0.03125, -0.09375, -0.06250, 0.03125, 0.00000, -0.06250, 0.09375, 0.03125, 0.03125, -0.09375, -0.09375, -0.15625, -0.09375, -0.06250, -0.03125, 0.00000, -0.06250, 0.06250, -0.03125, -0.09375, 0.03125, 0.00000, -0.12500, 0.09375, 0.00000, 0.00000, 0.06250, -0.09375, -0.03125, -0.06250, -0.03125, 0.00000, -0.03125, 0.09375, -0.03125, -0.06250, -0.03125, -0.03125, 0.00000, 0.06250, 0.03125, -0.06250, 0.06250, 0.06250, 0.00000, 0.06250, 0.12500, -0.06250, 0.00000, -0.09375, -0.09375, 0.12500, 0.03125, -0.03125, 0.06250, -0.06250, 0.03125, 0.00000, 0.03125, -0.06250, -0.09375, -0.03125, -0.03125, 0.00000, 0.00000, 0.03125, -0.03125, 0.03125, -0.03125, 0.00000, 0.00000, -0.03125, -0.03125, 0.03125, -0.03125, -0.06250, 0.06250, 0.00000, 0.06250, 0.12500, 0.00000, -0.03125, 0.03125, 0.03125, -0.09375, 0.00000, 0.06250, -0.03125, -0.03125, -0.06250, -0.06250, 0.12500, 0.09375, 0.00000, 0.03125, 0.03125, 0.06250, 0.06250, -0.09375, 0.06250, -0.03125, 0.06250, -0.06250, 0.12500, 0.03125, 0.03125, 0.00000, -0.09375, 0.03125, 0.06250, 0.00000, -0.12500, 0.00000, 0.00000, 0.06250, -0.09375, -0.03125, 0.00000, -0.09375, -0.03125, -0.03125, -0.06250, 0.00000, -0.06250, 0.00000, 0.03125, -0.09375, -0.03125, -0.06250, -0.03125, 0.00000, 0.00000, 0.00000, -0.03125, 0.03125, 0.06250, -0.03125, 0.00000, 0.03125, -0.09375, 0.00000, 0.06250, -0.12500, 0.03125, 0.00000, 0.00000, 0.00000, 0.00000, 0.03125, -0.03125, -0.06250, 0.09375, -0.03125, -0.06250, 0.00000, -0.09375, 0.06250, 0.00000, -0.09375, -0.12500, -0.09375, 0.03125, 0.00000, -0.06250, -0.03125, 0.00000, 0.00000, 0.00000, 0.09375, 0.03125, 0.03125, -0.03125, -0.06250, -0.09375, -0.09375, 0.00000, 0.03125, -0.09375, 0.00000, 0.06250, -0.03125, -0.06250, 0.00000, -0.03125, -0.06250, 0.03125, 0.12500, 0.06250, -0.03125, 0.03125, -0.03125, 0.12500, 0.00000, 0.00000, 0.00000, -0.06250, -0.06250, 0.03125, 0.06250, 0.09375, -0.09375, 0.06250, -0.06250, -0.12500, -0.06250, -0.06250, 0.03125, 0.03125, 0.00000, 0.03125, 0.12500, 0.00000, 0.03125, 0.03125, 0.06250, 0.06250, 0.00000, 0.00000, -0.09375, 0.03125, -0.03125, 0.00000, -0.09375, 0.06250, -0.06250, 0.00000, -0.12500, 0.06250, 0.03125, 0.00000, 0.00000, 0.03125, -0.06250, 0.00000, 0.09375, 0.00000, 0.00000, 0.00000, 0.00000, 0.03125, 0.00000, 0.00000, 0.00000, 0.00000, 0.00000, 0.03125, -0.09375, 0.00000, 0.03125, -0.03125, 0.00000, 0.00000, -0.03125, 0.03125, 0.00000, 0.00000, -0.03125, 0.03125, -0.03125, 0.03125, 0.00000, 0.06250, -0.06250, -0.09375, 0.06250, 0.00000, 0.00000, 0.00000, 0.03125, 0.03125, 0.00000, -0.03125, 0.03125, 0.00000, -0.03125, 0.03125, 0.03125, 0.03125, 0.00000, 0.03125, 0.06250, 0.03125, 0.03125, 0.00000, 0.03125, -0.03125, -0.03125, -0.06250, 0.03125, 0.06250, 0.00000, -0.03125, 0.03125, 0.00000, 0.00000, 0.09375, 0.03125, 0.03125, -0.03125, -0.03125, 0.06250, -0.03125, -0.03125, -0.06250, -0.03125, 0.00000, 0.00000, 0.06250, 0.00000, -0.03125, -0.03125, -0.03125, -0.06250, 0.00000, 0.00000, -0.03125, 0.00000, -0.03125, 0.09375, 0.03125, -0.12500, -0.06250, -0.09375, 0.03125, 0.00000, -0.03125, -0.03125, -0.03125, 0.03125, -0.03125, 0.03125, 0.03125, -0.03125, 0.06250, -0.06250, 0.03125, 0.03125, 0.06250, 0.12500, -0.09375, 0.06250, 0.00000, 0.03125, 0.00000, 0.00000, 0.03125, 0.06250, 0.03125, 0.03125, -0.03125, -0.09375, 0.00000, -0.06250, 0.03125, -0.03125, 0.06250, -0.03125, 0.06250, -0.03125, 0.03125, -0.03125, 0.00000, 0.03125, -0.06250, -0.03125, -0.06250, -0.12500, -0.06250, 0.06250, 0.00000, -0.03125, 0.00000, -0.06250, 0.00000, 0.03125, -0.03125, -0.03125, 0.06250, 0.03125, -0.03125, 0.00000, 0.06250, 0.09375, -0.12500, 0.03125, -0.03125, -0.06250, -0.12500, -0.03125, 0.03125, -0.06250, 0.00000, 0.00000, 0.06250, 0.03125, 0.03125, -0.03125, -0.06250, 0.00000, 0.09375, -0.06250, 0.00000, 0.06250, -0.03125, 0.03125, 0.06250, 0.06250, 0.00000, 0.00000, 0.03125, -0.06250, -0.03125, 0.00000, 0.06250, -0.09375, 0.12500, -0.12500, 0.00000, 0.00000, 0.03125, 0.03125, -0.09375, -0.03125, -0.03125, 0.03125, -0.03125, 0.00000, 0.03125, -0.03125, 0.03125, 0.03125, -0.06250, 0.09375, 0.06250, 0.06250, 0.00000, 0.03125, -0.03125, -0.03125, -0.09375, 0.03125, 0.03125, -0.03125, 0.03125, -0.06250, -0.03125, 0.00000, 0.00000, -0.06250, 0.00000, -0.09375, -0.06250, -0.03125, -0.03125, 0.06250, 0.00000, -0.06250, -0.09375, -0.09375, 0.00000, 0.03125, 0.06250, -0.03125, -0.03125, 0.06250, 0.00000, 0.09375, -0.06250, 0.09375, 0.03125, -0.03125, -0.03125, 0.03125, 0.00000, 0.03125, -0.12500, 0.06250, 0.00000, -0.06250, 0.00000, 0.06250, 0.06250, -0.03125, 0.06250, -0.09375, 0.00000, 0.06250, 0.03125, -0.03125, 0.00000, -0.12500, 0.03125, 0.03125, -0.06250, 0.09375, -0.03125, -0.06250, 0.00000, -0.03125, -0.06250, -0.03125, 0.00000, 0.09375, -0.15625, 0.00000, 0.00000, -0.03125, -0.03125, 0.03125, 0.00000, 0.00000, 0.06250, -0.03125, 0.06250, -0.12500, 0.03125, -0.03125, -0.09375, 0.03125, 0.03125, 0.06250, 0.03125, -0.06250, -0.12500, 0.06250, -0.09375, -0.06250, 0.09375, -0.03125, -0.06250, 0.00000, -0.03125, 0.00000, -0.06250, -0.06250, 0.03125, 0.06250, 0.00000, -0.06250, -0.06250, -0.09375, 0.00000, -0.12500, 0.03125, -0.03125, 0.06250, 0.00000, -0.03125, 0.06250, 0.00000, -0.06250, -0.09375, -0.06250, 0.03125, 0.00000, 0.00000, 0.06250, -0.03125, 0.03125, 0.00000, -0.03125, -0.03125, 0.06250, 0.00000, -0.09375, -0.06250, 0.00000, 0.06250, -0.06250, -0.03125, 0.06250, -0.03125, -0.03125, 0.06250, 0.00000, 0.06250, 0.06250, -0.06250, -0.09375, -0.06250, 0.00000, -0.03125, -0.03125, -0.06250, 0.00000, 0.00000, 0.06250, -0.06250, 0.09375, 0.06250, 0.09375, -0.03125, 0.03125, 0.00000, -0.06250, 0.06250, 0.00000, 0.00000, -0.06250, 0.03125, -0.09375, 0.00000, 0.09375, -0.06250, -0.03125, -0.06250, -0.09375, 0.03125, 0.03125, 0.06250, -0.09375, -0.06250, -0.03125, 0.03125, 0.06250, 0.06250, 0.09375, 0.00000, -0.03125, -0.03125, -0.09375, 0.00000, 0.06250, 0.00000, -0.06250, 0.00000, 0.06250, 0.12500, 0.00000, -0.03125, -0.06250, 0.06250, -0.03125, -0.06250, 0.03125, 0.06250, -0.06250, 0.06250, 0.03125, 0.03125, 0.00000, 0.09375, 0.00000, 0.00000, -0.03125, -0.03125, 0.12500, 0.03125, 0.09375, -0.03125, 0.00000, -0.03125, 0.00000, -0.06250, 0.03125, 0.06250, -0.03125, -0.06250, 0.03125, -0.03125, 0.03125, 0.00000, 0.00000, 0.12500, 0.03125, 0.06250, -0.06250, -0.06250, -0.06250, -0.03125, -0.06250, 0.00000, 0.03125, 0.00000, 0.06250, -0.03125, 0.03125, 0.00000, 0.06250, -0.09375, -0.09375, -0.03125, -0.06250, 0.06250, 0.00000, 0.00000, -0.03125, 0.00000, -0.03125, -0.06250, 0.00000, -0.06250, -0.06250, -0.06250, -0.12500, 0.00000, -0.06250, -0.03125, 0.12500, -0.03125, -0.03125, -0.03125, 0.00000, -0.06250, -0.06250, 0.06250, -0.06250, 0.03125, -0.03125, -0.03125, -0.06250, -0.06250, -0.03125, -0.03125, 0.09375, 0.00000, -0.03125, 0.00000, 0.00000, 0.00000, -0.06250, 0.03125, 0.06250, 0.06250, 0.09375, -0.03125, 0.00000, -0.09375, 0.03125, 0.06250, 0.06250, 0.00000, 0.06250, 0.03125, 0.00000, -0.06250, -0.09375, 0.06250, -0.06250, 0.12500, 0.00000, -0.03125, 0.00000, -0.03125, -0.03125, 0.03125, -0.09375, 0.00000, 0.00000, 0.00000, 0.09375, 0.09375, -0.03125, 0.00000, -0.06250, 0.00000, -0.06250, 0.03125, -0.03125, 0.06250, 0.03125, 0.06250, 0.00000, 0.03125, 0.00000, 0.09375, 0.00000, -0.06250, -0.03125, -0.09375, -0.06250, -0.06250, 0.00000, 0.03125, -0.03125, -0.06250, 0.12500, -0.03125, 0.12500, 0.06250, -0.09375, -0.03125, 0.03125, 0.06250, 0.09375, 0.00000, 0.03125, -0.06250, 0.00000, 0.03125, -0.09375, 0.03125, -0.09375, -0.03125, 0.09375, 0.03125, 0.00000, 0.00000, 0.03125, -0.03125, 0.03125, 0.03125, -0.03125, 0.09375, 0.06250, -0.06250, -0.03125, 0.09375, 0.03125, -0.06250, -0.03125, -0.06250, -0.03125, 0.03125, 0.03125, -0.03125, -0.06250, 0.06250, 0.00000, -0.12500, 0.06250, 0.03125, -0.06250, -0.03125, 0.09375, -0.03125, -0.09375, -0.03125, 0.03125, 0.06250, -0.03125, 0.03125, -0.03125, 0.00000, 0.03125, 0.00000, 0.03125, 0.03125, -0.06250, 0.00000, 0.00000, 0.00000, 0.06250, -0.06250, -0.03125, 0.00000, 0.00000, -0.03125, -0.03125, 0.03125, 0.09375, 0.03125, -0.03125, -0.06250, -0.06250, -0.12500, 0.03125, 0.03125, 0.03125, 0.03125, -0.03125, 0.00000, 0.09375, 0.00000, -0.12500, 0.06250, -0.03125, 0.06250, -0.06250, -0.03125, -0.09375, 0.03125, 0.00000, -0.06250, -0.09375, 0.00000, -0.09375, -0.03125, -0.12500, -0.03125, 0.03125, -0.03125, -0.03125, -0.09375, 0.06250, -0.03125, 0.09375, 0.09375, 0.00000, 0.03125, -0.03125, 0.03125, -0.03125, 0.00000, 0.12500, 0.00000, 0.00000, 0.00000, 0.00000, 0.00000, -0.06250, 0.03125, -0.03125, 0.00000, 0.12500, 0.06250, -0.03125, 0.06250, 0.03125, -0.03125, -0.03125, 0.06250, 0.06250, 0.00000, 0.03125, 0.00000, -0.03125, 0.00000, -0.12500, 0.06250, -0.03125, 0.03125, 0.00000, -0.03125, 0.06250, 0.09375, -0.09375, 0.00000, -0.03125, -0.09375, 0.09375, -0.03125, -0.06250, 0.00000, 0.06250, 0.00000, -0.03125, -0.06250, 0.00000, -0.03125, -0.03125, -0.06250, 0.06250, 0.03125, 0.06250, 0.00000, -0.03125, -0.06250, 0.00000, 0.00000, 0.03125, 0.00000, -0.06250, 0.03125, 0.09375, 0.09375, -0.06250, 0.03125, 0.12500, -0.03125, -0.06250, 0.03125, -0.06250, 0.00000, 0.09375, 0.03125, 0.00000, 0.00000, 0.00000, -0.03125, -0.03125, -0.06250, 0.06250, 0.03125, -0.09375, 0.00000, 0.03125, 0.00000, 0.03125, -0.03125, 0.03125, -0.03125, 0.06250, -0.06250, 0.00000, -0.03125, 0.00000, 0.03125, -0.03125, -0.03125, 0.00000, 0.06250, 0.00000, 0.03125, -0.09375, 0.06250, 0.03125, 0.03125, -0.09375, 0.06250, -0.06250, -0.03125, -0.12500, -0.06250, 0.00000, 0.00000, 0.03125, -0.03125, 0.03125, 0.09375, 0.00000, 0.06250, 0.00000, 0.06250, 0.12500, -0.09375, 0.00000, -0.03125, -0.03125, -0.06250, 0.00000, 0.00000, -0.03125, -0.06250, 0.09375, 0.03125, 0.00000, -0.03125, 0.03125, -0.03125, 0.12500, 0.03125, 0.03125, 0.00000, 0.03125, -0.03125, -0.09375, -0.03125, -0.03125, -0.06250, 0.03125, -0.06250, -0.09375, -0.03125, -0.03125, 0.06250, 0.09375, 0.00000, 0.03125, -0.03125, 0.00000, -0.06250, 0.03125, -0.03125, 0.12500, 0.12500, -0.09375, 0.00000, -0.06250, 0.00000, -0.03125, 0.00000, -0.12500, 0.03125, -0.06250, -0.03125, -0.06250, 0.00000, -0.03125, -0.06250, 0.06250, -0.09375, 0.00000, 0.03125, 0.12500, 0.00000, 0.03125, -0.06250, 0.09375, 0.06250, 0.03125, 0.03125, 0.12500, 0.06250, -0.09375, -0.03125, 0.00000, -0.09375, 0.03125, -0.03125, 0.09375, 0.03125, 0.03125, -0.03125, -0.03125, 0.03125, -0.09375, -0.09375, -0.03125, 0.00000, -0.06250, 0.00000, 0.09375, 0.00000, 0.00000, 0.00000, 0.12500, 0.06250, -0.06250, 0.03125, 0.06250, 0.00000, 0.03125, -0.06250, -0.09375, 0.03125, 0.00000, 0.00000, -0.03125, 0.09375, -0.06250, 0.00000, 0.00000, 0.00000, 0.06250, -0.03125, 0.12500, 0.09375, 0.00000, -0.03125, 0.03125, 0.03125, 0.03125, 0.03125, -0.06250, -0.06250, -0.06250, 0.03125, 0.00000, -0.03125, -0.03125, 0.00000, 0.06250, -0.09375, 0.06250, 0.06250, -0.03125, 0.12500, -0.06250, -0.03125, -0.09375, 0.09375, 0.03125, 0.03125, -0.03125, -0.06250, 0.00000, -0.09375, -0.03125, 0.09375, 0.03125, -0.03125, -0.12500, 0.03125, 0.09375, -0.03125, 0.03125, -0.12500, -0.03125, 0.06250, -0.06250, -0.03125, -0.03125, 0.03125, 0.00000, 0.03125, -0.06250, 0.00000, 0.12500, 0.12500, -0.03125, -0.03125, -0.03125, -0.06250, 0.00000, 0.00000, 0.06250, -0.06250, 0.00000, -0.06250, -0.03125, -0.09375, -0.03125, 0.03125, 0.00000, 0.06250, 0.00000, 0.00000, -0.06250, 0.09375, 0.06250, 0.00000, 0.03125, 0.09375, 0.03125, -0.03125, 0.00000, -0.09375, 0.00000, 0.00000, -0.06250, 0.00000, -0.09375, -0.03125, 0.12500, 0.00000, 0.03125, 0.00000, 0.00000, 0.00000, 0.06250, -0.06250, -0.09375, 0.03125, 0.03125, 0.00000, -0.03125, 0.03125, 0.00000, -0.03125, 0.09375, -0.06250};
#endif

#endif
